{"learner":{"attributes":{"scikit_learn":"{\"_estimator_type\": \"regressor\"}"},"feature_names":["Cycles","Baseline_Efficiency","Initial_Wear_HPT_Efficiency","Initial_Wear_HPT_Flow","Wear_HPT_Efficiency_3000","Wear_HPT_Flow_3000","Wear_HPT_Efficiency_6000","Wear_HPT_Flow_6000","Engine pressure ratioP50/P2"],"feature_types":["int","float","float","float","float","float","float","float","float"],"gradient_booster":{"model":{"gbtree_model_param":{"num_parallel_tree":"1","num_trees":"100"},"iteration_indptr":[0,1,2,3,4,5,6,7,8,9,10,11,12,13,14,15,16,17,18,19,20,21,22,23,24,25,26,27,28,29,30,31,32,33,34,35,36,37,38,39,40,41,42,43,44,45,46,47,48,49,50,51,52,53,54,55,56,57,58,59,60,61,62,63,64,65,66,67,68,69,70,71,72,73,74,75,76,77,78,79,80,81,82,83,84,85,86,87,88,89,90,91,92,93,94,95,96,97,98,99,100],"tree_info":[0,0,0,0,0,0,0,0,0,0,0,0,0,0,0,0,0,0,0,0,0,0,0,0,0,0,0,0,0,0,0,0,0,0,0,0,0,0,0,0,0,0,0,0,0,0,0,0,0,0,0,0,0,0,0,0,0,0,0,0,0,0,0,0,0,0,0,0,0,0,0,0,0,0,0,0,0,0,0,0,0,0,0,0,0,0,0,0,0,0,0,0,0,0,0,0,0,0,0,0],"trees":[{"base_weights":[-5.391375E-9,5.53836E-3,-1.5763046E-2,6.8324E-3,-1.4321953E-3,-1.0928341E-2,-2.4288136E-3,9.673611E-3,5.224526E-3,-7.4801533E-3,2.6952564E-3,-1.1383094E-2,2.2666306E-4,-2.961181E-3,1.0670332E-2,4.4184807E-3,1.6753924E-3,-2.8445541E-3,-1.0096461E-2,1.6233325E-3,8.851096E-4,-6.6995407E-3,-1.2147443E-2,-4.8579276E-4,1.3645292E-4,9.1324495E-3,1.5872542E-3,-2.7172447E-3,4.840915E-3,-1.0657827E-3,5.9169036E-4,-1.2858481E-3,-5.5008307E-3,3.4794137E-3,-6.3421036E-4,-1.13400165E-2,3.267765E-3,-2.114346E-3,-1.0222184E-2,9.844882E-4,-7.1889017E-4,2.6953221E-5,-3.531322E-4,6.164675E-4,2.6939114E-4,1.604855E-5,-7.4414315E-4,-4.3694676E-5,6.339235E-4,-5.911395E-4,-1.652725E-3,-2.8775632E-5,5.189404E-4,3.2358617E-4,-1.2204456E-3],"categories":[],"categories_nodes":[],"categories_segments":[],"categories_sizes":[],"default_left":[0,0,0,0,0,0,0,0,0,0,0,0,0,0,0,0,0,0,0,0,0,0,0,0,0,0,0,0,0,0,0,0,0,0,0,0,0,0,0,0,0,0,0,0,0,0,0,0,0,0,0,0,0,0,0],"id":0,"left_children":[1,3,5,7,9,11,-1,13,15,17,19,21,-1,23,25,27,-1,29,31,33,-1,35,37,-1,-1,39,-1,41,43,-1,-1,-1,45,47,-1,49,51,-1,53,-1,-1,-1,-1,-1,-1,-1,-1,-1,-1,-1,-1,-1,-1,-1,-1],"loss_changes":[1.7460296E-2,1.3447716E-3,1.8778192E-3,5.2049896E-4,6.1926467E-4,2.358174E-4,0E0,5.8570504E-4,6.8801665E-4,9.256159E-5,8.4610605E-5,4.0332787E-5,0E0,3.944788E-5,1.830603E-4,2.4827512E-4,0E0,4.053396E-4,5.4269913E-6,2.2904974E-4,0E0,3.608278E-4,2.688188E-4,0E0,0E0,4.6612043E-4,0E0,1.310914E-5,1.9370986E-4,0E0,0E0,0E0,4.513967E-5,1.37171E-4,0E0,4.3098524E-5,2.1990567E-5,0E0,7.064298E-4,0E0,0E0,0E0,0E0,0E0,0E0,0E0,0E0,0E0,0E0,0E0,0E0,0E0,0E0,0E0,0E0],"parents":[2147483647,0,0,1,1,2,2,3,3,4,4,5,5,7,7,8,8,9,9,10,10,11,11,13,13,14,14,15,15,17,17,18,18,19,19,21,21,22,22,25,25,27,27,28,28,32,32,33,33,35,35,36,36,38,38],"right_children":[2,4,6,8,10,12,-1,14,16,18,20,22,-1,24,26,28,-1,30,32,34,-1,36,38,-1,-1,40,-1,42,44,-1,-1,-1,46,48,-1,50,52,-1,54,-1,-1,-1,-1,-1,-1,-1,-1,-1,-1,-1,-1,-1,-1,-1,-1],"split_conditions":[1.48E2,1.25E2,1.82E2,4.4E1,1.34E2,1.81E2,-2.4288136E-3,4E0,1.21E2,1.29E2,1.47E2,1.54E2,2.2666306E-4,3E0,3.7E1,4.8E1,1.6753924E-3,1.27E2,1.31E2,1.45E2,8.851096E-4,1.52E2,1.57E2,-4.8579276E-4,1.3645292E-4,3.6E1,1.5872542E-3,4.5E1,9.2E1,-1.0657827E-3,5.9169036E-4,-1.2858481E-3,1.32E2,1.39E2,-6.3421036E-4,1.51E2,1.53E2,-2.114346E-3,1.6E2,9.844882E-4,-7.1889017E-4,2.6953221E-5,-3.531322E-4,6.164675E-4,2.6939114E-4,1.604855E-5,-7.4414315E-4,-4.3694676E-5,6.339235E-4,-5.911395E-4,-1.652725E-3,-2.8775632E-5,5.189404E-4,3.2358617E-4,-1.2204456E-3],"split_indices":[0,0,0,0,0,0,0,0,0,0,0,0,0,0,0,0,0,0,0,0,0,0,0,0,0,0,0,0,0,0,0,0,0,0,0,0,0,0,0,0,0,0,0,0,0,0,0,0,0,0,0,0,0,0,0],"split_type":[0,0,0,0,0,0,0,0,0,0,0,0,0,0,0,0,0,0,0,0,0,0,0,0,0,0,0,0,0,0,0,0,0,0,0,0,0,0,0,0,0,0,0,0,0,0,0,0,0,0,0,0,0,0,0],"sum_hessian":[1.98E2,1.47E2,5.1E1,1.24E2,2.3E1,3.4E1,1.7E1,4.3E1,8.1E1,9E0,1.4E1,3.3E1,1E0,3E0,4E1,7.7E1,4E0,4E0,5E0,1.3E1,1E0,6E0,2.7E1,2E0,1E0,3.3E1,7E0,4E0,7.3E1,2E0,2E0,2E0,3E0,1.1E1,2E0,4E0,2E0,3E0,2.4E1,3.2E1,1E0,1E0,3E0,4.4E1,2.9E1,1E0,2E0,5E0,6E0,3E0,1E0,1E0,1E0,3E0,2.1E1],"tree_param":{"num_deleted":"0","num_feature":"9","num_nodes":"55","size_leaf_vector":"1"}},{"base_weights":[-2.45041E-5,4.9986606E-3,-1.4320733E-2,6.179073E-3,-1.3575976E-3,-9.965179E-3,-2.199427E-3,8.740421E-3,4.729336E-3,-6.9809435E-3,2.4818063E-3,-1.0384937E-2,2.1532923E-4,-2.7523935E-3,9.648491E-3,3.839486E-3,1.3714948E-3,-2.6549161E-3,-9.422476E-3,1.4578572E-3,8.4085466E-4,-6.28012E-3,-1.104025E-2,-4.534056E-4,1.2962967E-4,8.227014E-3,1.4483705E-3,-2.5107563E-3,4.227149E-3,-9.9473E-4,5.5224396E-4,-1.2001246E-3,-5.1327795E-3,3.1806554E-3,-5.919288E-4,-1.0654795E-2,3.1043787E-3,-1.9557693E-3,-9.23585E-3,8.890225E-4,-6.8294554E-4,-3.2962562E-4,3.156215E-5,5.561914E-4,1.9310223E-4,1.5245379E-5,-6.945342E-4,-4.0053823E-5,5.7958707E-4,-5.468048E-4,-1.5700891E-3,-2.733618E-5,4.92993E-4,2.9931666E-4,-1.1039496E-3],"categories":[],"categories_nodes":[],"categories_segments":[],"categories_sizes":[],"default_left":[0,0,0,0,0,0,0,0,0,0,0,0,0,0,0,0,0,0,0,0,0,0,0,0,0,0,0,0,0,0,0,0,0,0,0,0,0,0,0,0,0,0,0,0,0,0,0,0,0,0,0,0,0,0,0],"id":1,"left_children":[1,3,5,7,9,11,-1,13,15,17,19,21,-1,23,25,27,-1,29,31,33,-1,35,37,-1,-1,39,-1,41,43,-1,-1,-1,45,47,-1,49,51,-1,53,-1,-1,-1,-1,-1,-1,-1,-1,-1,-1,-1,-1,-1,-1,-1,-1],"loss_changes":[1.4362235E-2,1.1188332E-3,1.5187943E-3,4.228237E-4,5.354925E-4,2.0040083E-4,0E0,4.8575248E-4,6.030011E-4,8.06055E-5,7.8771736E-5,2.2124033E-5,0E0,3.473108E-5,1.6264105E-4,1.9770651E-4,0E0,3.5309544E-4,4.7730864E-6,1.9675786E-4,0E0,3.2045547E-4,2.4969666E-4,0E0,0E0,4.0022586E-4,0E0,1.2140965E-5,2.0992453E-4,0E0,0E0,0E0,3.9378087E-5,1.1470855E-4,0E0,4.5010936E-5,1.9846366E-5,0E0,5.8446336E-4,0E0,0E0,0E0,0E0,0E0,0E0,0E0,0E0,0E0,0E0,0E0,0E0,0E0,0E0,0E0,0E0],"parents":[2147483647,0,0,1,1,2,2,3,3,4,4,5,5,7,7,8,8,9,9,10,10,11,11,13,13,14,14,15,15,17,17,18,18,19,19,21,21,22,22,25,25,27,27,28,28,32,32,33,33,35,35,36,36,38,38],"right_children":[2,4,6,8,10,12,-1,14,16,18,20,22,-1,24,26,28,-1,30,32,34,-1,36,38,-1,-1,40,-1,42,44,-1,-1,-1,46,48,-1,50,52,-1,54,-1,-1,-1,-1,-1,-1,-1,-1,-1,-1,-1,-1,-1,-1,-1,-1],"split_conditions":[1.48E2,1.25E2,1.82E2,4.4E1,1.34E2,1.81E2,-2.199427E-3,4E0,1.19E2,1.29E2,1.47E2,1.54E2,2.1532923E-4,3E0,3.7E1,4.8E1,1.3714948E-3,1.27E2,1.31E2,1.45E2,8.4085466E-4,1.52E2,1.57E2,-4.534056E-4,1.2962967E-4,3.6E1,1.4483705E-3,4.7E1,9.2E1,-9.9473E-4,5.5224396E-4,-1.2001246E-3,1.32E2,1.39E2,-5.919288E-4,1.51E2,1.53E2,-1.9557693E-3,1.6E2,8.890225E-4,-6.8294554E-4,-3.2962562E-4,3.156215E-5,5.561914E-4,1.9310223E-4,1.5245379E-5,-6.945342E-4,-4.0053823E-5,5.7958707E-4,-5.468048E-4,-1.5700891E-3,-2.733618E-5,4.92993E-4,2.9931666E-4,-1.1039496E-3],"split_indices":[0,0,0,0,0,0,0,0,0,0,0,0,0,0,0,0,0,0,0,0,0,0,0,0,0,0,0,0,0,0,0,0,0,0,0,0,0,0,0,0,0,0,0,0,0,0,0,0,0,0,0,0,0,0,0],"split_type":[0,0,0,0,0,0,0,0,0,0,0,0,0,0,0,0,0,0,0,0,0,0,0,0,0,0,0,0,0,0,0,0,0,0,0,0,0,0,0,0,0,0,0,0,0,0,0,0,0,0,0,0,0,0,0],"sum_hessian":[1.98E2,1.47E2,5.1E1,1.24E2,2.3E1,3.4E1,1.7E1,4.3E1,8.1E1,9E0,1.4E1,3.3E1,1E0,3E0,4E1,7.5E1,6E0,4E0,5E0,1.3E1,1E0,6E0,2.7E1,2E0,1E0,3.3E1,7E0,4E0,7.1E1,2E0,2E0,2E0,3E0,1.1E1,2E0,4E0,2E0,3E0,2.4E1,3.2E1,1E0,3E0,1E0,4.4E1,2.7E1,1E0,2E0,5E0,6E0,3E0,1E0,1E0,1E0,3E0,2.1E1],"tree_param":{"num_deleted":"0","num_feature":"9","num_nodes":"55","size_leaf_vector":"1"}},{"base_weights":[-4.6054472E-5,4.5097372E-3,-1.3011653E-2,5.5863895E-3,-1.2857318E-3,-9.088561E-3,-1.991702E-3,5.1794765E-3,1.4316405E-3,-6.515038E-3,2.2861878E-3,-9.476203E-3,2.0456314E-4,7.896616E-3,3.580328E-3,-2.477914E-3,-8.793469E-3,1.3083263E-3,7.9881254E-4,-8.126689E-3,-1.1902365E-3,-2.5580972E-3,8.723987E-3,-2.3193E-3,3.9305687E-3,-9.284139E-4,5.154282E-4,-1.1201174E-3,-4.7893226E-3,2.907547E-3,-5.5246655E-4,-9.593237E-3,-3.418505E-4,-4.2317808E-4,1.2314766E-4,7.4103643E-4,1.3216388E-3,4.2086842E-5,-3.1095595E-4,8.380972E-4,3.340512E-4,1.4482439E-5,-6.482313E-4,-3.6715963E-5,5.299074E-4,-5.8879977E-4,-1.06828E-3,4.7803074E-4,-2.817467E-4],"categories":[],"categories_nodes":[],"categories_segments":[],"categories_sizes":[],"default_left":[0,0,0,0,0,0,0,0,0,0,0,0,0,0,0,0,0,0,0,0,0,0,0,0,0,0,0,0,0,0,0,0,0,0,0,0,0,0,0,0,0,0,0,0,0,0,0,0,0],"id":2,"left_children":[1,3,5,7,9,11,-1,13,-1,15,17,19,-1,21,23,25,27,29,-1,31,-1,33,35,37,39,-1,-1,-1,41,43,-1,45,47,-1,-1,-1,-1,-1,-1,-1,-1,-1,-1,-1,-1,-1,-1,-1,-1],"loss_changes":[1.1813325E-2,9.3065854E-4,1.2276825E-3,3.6989292E-4,4.6318248E-4,1.7044786E-4,0E0,4.9748574E-4,0E0,7.019361E-5,7.3184514E-5,1.4593825E-5,0E0,4.029139E-4,1.7028686E-4,3.075853E-4,4.1987223E-6,1.6904766E-4,0E0,2.821415E-4,0E0,3.058153E-5,1.44016E-4,1.213593E-5,1.6632653E-4,0E0,0E0,0E0,3.4352655E-5,9.592422E-5,0E0,2.1878514E-5,7.687085E-5,0E0,0E0,0E0,0E0,0E0,0E0,0E0,0E0,0E0,0E0,0E0,0E0,0E0,0E0,0E0,0E0],"parents":[2147483647,0,0,1,1,2,2,3,3,4,4,5,5,7,7,9,9,10,10,11,11,13,13,14,14,15,15,16,16,17,17,19,19,21,21,22,22,23,23,24,24,28,28,29,29,31,31,32,32],"right_children":[2,4,6,8,10,12,-1,14,-1,16,18,20,-1,22,24,26,28,30,-1,32,-1,34,36,38,40,-1,-1,-1,42,44,-1,46,48,-1,-1,-1,-1,-1,-1,-1,-1,-1,-1,-1,-1,-1,-1,-1,-1],"split_conditions":[1.48E2,1.25E2,1.82E2,1.21E2,1.34E2,1.81E2,-1.991702E-3,4.4E1,1.4316405E-3,1.29E2,1.47E2,1.72E2,2.0456314E-4,4E0,4.8E1,1.27E2,1.31E2,1.45E2,7.9881254E-4,1.68E2,-1.1902365E-3,3E0,3.7E1,4.5E1,5.5E1,-9.284139E-4,5.154282E-4,-1.1201174E-3,1.32E2,1.39E2,-5.5246655E-4,1.54E2,1.69E2,-4.2317808E-4,1.2314766E-4,7.4103643E-4,1.3216388E-3,4.2086842E-5,-3.1095595E-4,8.380972E-4,3.340512E-4,1.4482439E-5,-6.482313E-4,-3.6715963E-5,5.299074E-4,-5.8879977E-4,-1.06828E-3,4.7803074E-4,-2.817467E-4],"split_indices":[0,0,0,0,0,0,0,0,0,0,0,0,0,0,0,0,0,0,0,0,0,0,0,0,0,0,0,0,0,0,0,0,0,0,0,0,0,0,0,0,0,0,0,0,0,0,0,0,0],"split_type":[0,0,0,0,0,0,0,0,0,0,0,0,0,0,0,0,0,0,0,0,0,0,0,0,0,0,0,0,0,0,0,0,0,0,0,0,0,0,0,0,0,0,0,0,0,0,0,0,0],"sum_hessian":[1.98E2,1.47E2,5.1E1,1.24E2,2.3E1,3.4E1,1.7E1,1.2E2,4E0,9E0,1.4E1,3.3E1,1E0,4.3E1,7.7E1,4E0,5E0,1.3E1,1E0,2.4E1,9E0,3E0,4E1,4E0,7.3E1,2E0,2E0,2E0,3E0,1.1E1,2E0,2E1,4E0,2E0,1E0,3.3E1,7E0,1E0,3E0,7E0,6.6E1,1E0,2E0,5E0,6E0,6E0,1.4E1,1E0,3E0],"tree_param":{"num_deleted":"0","num_feature":"9","num_nodes":"49","size_leaf_vector":"1"}},{"base_weights":[-5.0333725E-5,4.076804E-3,-1.1795836E-2,5.06053E-3,-1.2166327E-3,-8.249595E-3,-1.803598E-2,4.68356E-3,1.3171089E-3,-6.0802223E-3,2.1068691E-3,-8.606545E-3,1.9433499E-4,-1.3642341E-2,-2.1822737E-3,7.1470155E-3,3.2338728E-3,-2.3127259E-3,-8.206432E-3,7.9815986E-4,1.1171316E-3,-7.3724426E-3,-1.0831145E-3,-1.4855945E-3,-7.531494E-5,-2.3772866E-3,7.901899E-3,-2.9040873E-3,3.5181125E-3,-8.665204E-4,4.8106612E-4,-1.0454427E-3,-4.4688284E-3,-8.0510677E-4,2.4416905E-3,-8.712811E-3,-2.6840568E-4,-3.949652E-4,1.1699051E-4,6.691124E-4,1.205995E-3,3.9982795E-5,-4.1386686E-4,4.5325476E-4,1.8453748E-4,1.3758242E-5,-6.0501596E-4,1.380379E-4,7.5887144E-4,-1.0684172E-3,-6.3439435E-4,4.5412927E-4,-2.6061534E-4],"categories":[],"categories_nodes":[],"categories_segments":[],"categories_sizes":[],"default_left":[0,0,0,0,0,0,0,0,0,0,0,0,0,0,0,0,0,0,0,0,0,0,0,0,0,0,0,0,0,0,0,0,0,0,0,0,0,0,0,0,0,0,0,0,0,0,0,0,0,0,0,0,0],"id":3,"left_children":[1,3,5,7,9,11,13,15,-1,17,19,21,-1,23,-1,25,27,29,31,-1,33,35,-1,-1,-1,37,39,41,43,-1,-1,-1,45,-1,47,49,51,-1,-1,-1,-1,-1,-1,-1,-1,-1,-1,-1,-1,-1,-1,-1,-1],"loss_changes":[9.694676E-3,7.768355E-4,1.001921E-3,3.2049185E-4,4.007498E-4,1.4406838E-4,1.7643906E-6,4.0900754E-4,0E0,6.112567E-5,7.830011E-5,1.3491139E-5,0E0,1.6087736E-4,0E0,3.3513317E-4,1.462996E-4,2.6794116E-4,3.6936253E-6,0E0,1.896717E-4,2.3571216E-4,0E0,0E0,0E0,2.6930646E-5,1.257183E-4,1.7970557E-5,1.1890201E-4,0E0,0E0,0E0,2.9969437E-5,0E0,6.053844E-5,3.0288007E-5,6.8054615E-5,0E0,0E0,0E0,0E0,0E0,0E0,0E0,0E0,0E0,0E0,0E0,0E0,0E0,0E0,0E0,0E0],"parents":[2147483647,0,0,1,1,2,2,3,3,4,4,5,5,6,6,7,7,9,9,10,10,11,11,13,13,15,15,16,16,17,17,18,18,20,20,21,21,25,25,26,26,27,27,28,28,32,32,34,34,35,35,36,36],"right_children":[2,4,6,8,10,12,14,16,-1,18,20,22,-1,24,-1,26,28,30,32,-1,34,36,-1,-1,-1,38,40,42,44,-1,-1,-1,46,-1,48,50,52,-1,-1,-1,-1,-1,-1,-1,-1,-1,-1,-1,-1,-1,-1,-1,-1],"split_conditions":[1.48E2,1.25E2,1.82E2,1.21E2,1.34E2,1.81E2,1.92E2,4.4E1,1.3171089E-3,1.29E2,1.35E2,1.72E2,1.9433499E-4,1.91E2,-2.1822737E-3,4E0,4.7E1,1.27E2,1.31E2,7.9815986E-4,1.36E2,1.68E2,-1.0831145E-3,-1.4855945E-3,-7.531494E-5,3E0,3.7E1,4.5E1,9.2E1,-8.665204E-4,4.8106612E-4,-1.0454427E-3,1.32E2,-8.0510677E-4,1.47E2,1.57E2,1.69E2,-3.949652E-4,1.1699051E-4,6.691124E-4,1.205995E-3,3.9982795E-5,-4.1386686E-4,4.5325476E-4,1.8453748E-4,1.3758242E-5,-6.0501596E-4,1.380379E-4,7.5887144E-4,-1.0684172E-3,-6.3439435E-4,4.5412927E-4,-2.6061534E-4],"split_indices":[0,0,0,0,0,0,0,0,0,0,0,0,0,0,0,0,0,0,0,0,0,0,0,0,0,0,0,0,0,0,0,0,0,0,0,0,0,0,0,0,0,0,0,0,0,0,0,0,0,0,0,0,0],"split_type":[0,0,0,0,0,0,0,0,0,0,0,0,0,0,0,0,0,0,0,0,0,0,0,0,0,0,0,0,0,0,0,0,0,0,0,0,0,0,0,0,0,0,0,0,0,0,0,0,0,0,0,0,0],"sum_hessian":[1.98E2,1.47E2,5.1E1,1.24E2,2.3E1,3.4E1,1.7E1,1.2E2,4E0,9E0,1.4E1,3.3E1,1E0,1E1,7E0,4.3E1,7.7E1,4E0,5E0,1E0,1.3E1,2.4E1,9E0,9E0,1E0,3E0,4E1,3E0,7.4E1,2E0,2E0,2E0,3E0,1E0,1.2E1,2E1,4E0,2E0,1E0,3.3E1,7E0,1E0,2E0,4.5E1,2.9E1,1E0,2E0,1.1E1,1E0,9E0,1.1E1,1E0,3E0],"tree_param":{"num_deleted":"0","num_feature":"9","num_nodes":"53","size_leaf_vector":"1"}},{"base_weights":[-6.588365E-5,3.6829433E-3,-1.0734355E-2,4.579897E-3,-1.1421479E-3,-7.493152E-3,-1.644034E-2,4.23058E-3,1.2117398E-3,-5.6744157E-3,1.955507E-3,-7.822137E-3,1.8461794E-4,-1.24200145E-2,-1.9913246E-3,6.4686076E-3,2.9138643E-3,-2.1585405E-3,-7.658576E-3,7.582516E-4,1.0119698E-3,-4.4675255E-3,-8.381428E-3,-1.3518918E-3,-7.154942E-5,-3.6863386E-4,7.0399465E-3,-2.7071536E-3,3.1748004E-3,-8.087516E-4,4.4899486E-4,-9.7574695E-4,-4.169762E-3,-7.648513E-4,2.2665078E-3,-8.686918E-3,4.0539703E-3,-1.6488329E-3,-6.7490675E-3,5.932572E-4,1.1004716E-3,3.798306E-5,-3.8627585E-4,6.496178E-4,2.6812602E-4,1.3069809E-5,-5.6468154E-4,1.2538383E-4,7.2092714E-4,-3.8150253E-4,-1.4087245E-3,5.6891146E-5,5.512044E-4,4.04571E-4,-8.4049784E-4],"categories":[],"categories_nodes":[],"categories_segments":[],"categories_sizes":[],"default_left":[0,0,0,0,0,0,0,0,0,0,0,0,0,0,0,0,0,0,0,0,0,0,0,0,0,0,0,0,0,0,0,0,0,0,0,0,0,0,0,0,0,0,0,0,0,0,0,0,0,0,0,0,0,0,0],"id":4,"left_children":[1,3,5,7,9,11,13,15,-1,17,19,21,-1,23,-1,25,27,29,31,-1,33,35,37,-1,-1,-1,39,41,43,-1,-1,-1,45,-1,47,49,51,-1,53,-1,-1,-1,-1,-1,-1,-1,-1,-1,-1,-1,-1,-1,-1,-1,-1],"loss_changes":[7.99839E-3,6.457579E-4,8.3851116E-4,2.7785893E-4,3.4804203E-4,1.2197881E-4,3.996771E-6,3.3771968E-4,0E0,5.3229247E-5,7.196612E-5,2.6346417E-5,0E0,1.3181067E-4,0E0,2.812359E-4,1.229993E-4,2.3340617E-4,3.249559E-6,0E0,1.6944409E-4,2.869052E-4,2.5925413E-4,0E0,0E0,0E0,1.1911406E-4,1.573653E-5,1.0552455E-4,0E0,0E0,0E0,2.6146052E-5,0E0,5.6030753E-5,7.780589E-5,1.210855E-5,0E0,4.8088387E-4,0E0,0E0,0E0,0E0,0E0,0E0,0E0,0E0,0E0,0E0,0E0,0E0,0E0,0E0,0E0,0E0],"parents":[2147483647,0,0,1,1,2,2,3,3,4,4,5,5,6,6,7,7,9,9,10,10,11,11,13,13,15,15,16,16,17,17,18,18,20,20,21,21,22,22,26,26,27,27,28,28,32,32,34,34,35,35,36,36,38,38],"right_children":[2,4,6,8,10,12,14,16,-1,18,20,22,-1,24,-1,26,28,30,32,-1,34,36,38,-1,-1,-1,40,42,44,-1,-1,-1,46,-1,48,50,52,-1,54,-1,-1,-1,-1,-1,-1,-1,-1,-1,-1,-1,-1,-1,-1,-1,-1],"split_conditions":[1.48E2,1.25E2,1.82E2,1.21E2,1.34E2,1.81E2,1.92E2,4.4E1,1.2117398E-3,1.29E2,1.35E2,1.54E2,1.8461794E-4,1.91E2,-1.9913246E-3,3E0,4.7E1,1.27E2,1.31E2,7.582516E-4,1.36E2,1.52E2,1.57E2,-1.3518918E-3,-7.154942E-5,-3.6863386E-4,3.7E1,4.5E1,5.5E1,-8.087516E-4,4.4899486E-4,-9.7574695E-4,1.32E2,-7.648513E-4,1.47E2,1.51E2,1.53E2,-1.6488329E-3,1.6E2,5.932572E-4,1.1004716E-3,3.798306E-5,-3.8627585E-4,6.496178E-4,2.6812602E-4,1.3069809E-5,-5.6468154E-4,1.2538383E-4,7.2092714E-4,-3.8150253E-4,-1.4087245E-3,5.6891146E-5,5.512044E-4,4.04571E-4,-8.4049784E-4],"split_indices":[0,0,0,0,0,0,0,0,0,0,0,0,0,0,0,0,0,0,0,0,0,0,0,0,0,0,0,0,0,0,0,0,0,0,0,0,0,0,0,0,0,0,0,0,0,0,0,0,0,0,0,0,0,0,0],"split_type":[0,0,0,0,0,0,0,0,0,0,0,0,0,0,0,0,0,0,0,0,0,0,0,0,0,0,0,0,0,0,0,0,0,0,0,0,0,0,0,0,0,0,0,0,0,0,0,0,0,0,0,0,0,0,0],"sum_hessian":[1.98E2,1.47E2,5.1E1,1.24E2,2.3E1,3.4E1,1.7E1,1.2E2,4E0,9E0,1.4E1,3.3E1,1E0,1E1,7E0,4.3E1,7.7E1,4E0,5E0,1E0,1.3E1,6E0,2.7E1,9E0,1E0,2E0,4.1E1,3E0,7.4E1,2E0,2E0,2E0,3E0,1E0,1.2E1,4E0,2E0,3E0,2.4E1,3.4E1,7E0,1E0,2E0,8E0,6.6E1,1E0,2E0,1.1E1,1E0,3E0,1E0,1E0,1E0,3E0,2.1E1],"tree_param":{"num_deleted":"0","num_feature":"9","num_nodes":"55","size_leaf_vector":"1"}},{"base_weights":[-8.159876E-5,3.3285597E-3,-9.785865E-3,4.1467566E-3,-1.0715723E-3,-6.831908E-3,-1.4986012E-2,3.7645744E-3,1.005146E-3,-5.295685E-3,1.815941E-3,-7.136015E-3,1.7538667E-4,-1.1307416E-2,-1.817083E-3,5.8518704E-3,2.5066063E-3,-2.014643E-3,-7.1472726E-3,7.2033855E-4,9.16596E-4,-4.1896487E-3,-7.6177493E-3,-1.2302215E-3,-6.797165E-5,-2.1730512E-3,6.492061E-3,-2.0572662E-3,2.7887279E-3,-7.5483526E-4,4.190614E-4,-9.106964E-4,-3.8906857E-3,-7.2660897E-4,2.1049632E-3,-8.176273E-3,3.8512747E-3,-1.5251696E-3,-6.0916077E-3,-3.4405888E-4,8.147806E-5,4.3541068E-4,7.975933E-4,3.6083162E-5,-2.7519985E-4,3.8483262E-4,9.862046E-5,1.2415648E-5,-5.270352E-4,1.1389082E-4,6.8488123E-4,-3.5289006E-4,-1.3382882E-3,5.404651E-5,5.236447E-4,3.7422852E-4,-7.6026976E-4],"categories":[],"categories_nodes":[],"categories_segments":[],"categories_sizes":[],"default_left":[0,0,0,0,0,0,0,0,0,0,0,0,0,0,0,0,0,0,0,0,0,0,0,0,0,0,0,0,0,0,0,0,0,0,0,0,0,0,0,0,0,0,0,0,0,0,0,0,0,0,0,0,0,0,0,0,0],"id":5,"left_children":[1,3,5,7,9,11,13,15,-1,17,19,21,-1,23,-1,25,27,29,31,-1,33,35,37,-1,-1,39,41,43,45,-1,-1,-1,47,-1,49,51,53,-1,55,-1,-1,-1,-1,-1,-1,-1,-1,-1,-1,-1,-1,-1,-1,-1,-1,-1,-1],"loss_changes":[6.6180974E-3,5.372694E-4,6.9638947E-4,2.4424423E-4,3.0234898E-4,1.0390044E-4,5.416572E-6,2.977961E-4,0E0,4.6352157E-5,6.6074965E-5,1.6342732E-5,0E0,1.07934466E-4,0E0,2.4015666E-4,1.0359232E-4,2.0332266E-4,2.859073E-6,0E0,1.5143133E-4,2.5588207E-4,2.3330597E-4,0E0,0E0,1.7952081E-5,9.5342635E-5,9.392663E-6,1.3372122E-4,0E0,0E0,0E0,2.2810913E-5,0E0,5.1776486E-5,7.375839E-5,1.0928008E-5,0E0,3.9994885E-4,0E0,0E0,0E0,0E0,0E0,0E0,0E0,0E0,0E0,0E0,0E0,0E0,0E0,0E0,0E0,0E0,0E0,0E0],"parents":[2147483647,0,0,1,1,2,2,3,3,4,4,5,5,6,6,7,7,9,9,10,10,11,11,13,13,15,15,16,16,17,17,18,18,20,20,21,21,22,22,25,25,26,26,27,27,28,28,32,32,34,34,35,35,36,36,38,38],"right_children":[2,4,6,8,10,12,14,16,-1,18,20,22,-1,24,-1,26,28,30,32,-1,34,36,38,-1,-1,40,42,44,46,-1,-1,-1,48,-1,50,52,54,-1,56,-1,-1,-1,-1,-1,-1,-1,-1,-1,-1,-1,-1,-1,-1,-1,-1,-1,-1],"split_conditions":[1.48E2,1.25E2,1.82E2,1.19E2,1.34E2,1.81E2,1.92E2,4.4E1,1.005146E-3,1.29E2,1.35E2,1.54E2,1.7538667E-4,1.91E2,-1.817083E-3,4E0,4.8E1,1.27E2,1.31E2,7.2033855E-4,1.36E2,1.52E2,1.57E2,-1.2302215E-3,-6.797165E-5,3E0,2.2E1,4.5E1,9.2E1,-7.5483526E-4,4.190614E-4,-9.106964E-4,1.32E2,-7.2660897E-4,1.47E2,1.51E2,1.53E2,-1.5251696E-3,1.6E2,-3.4405888E-4,8.147806E-5,4.3541068E-4,7.975933E-4,3.6083162E-5,-2.7519985E-4,3.8483262E-4,9.862046E-5,1.2415648E-5,-5.270352E-4,1.1389082E-4,6.8488123E-4,-3.5289006E-4,-1.3382882E-3,5.404651E-5,5.236447E-4,3.7422852E-4,-7.6026976E-4],"split_indices":[0,0,0,0,0,0,0,0,0,0,0,0,0,0,0,0,0,0,0,0,0,0,0,0,0,0,0,0,0,0,0,0,0,0,0,0,0,0,0,0,0,0,0,0,0,0,0,0,0,0,0,0,0,0,0,0,0],"split_type":[0,0,0,0,0,0,0,0,0,0,0,0,0,0,0,0,0,0,0,0,0,0,0,0,0,0,0,0,0,0,0,0,0,0,0,0,0,0,0,0,0,0,0,0,0,0,0,0,0,0,0,0,0,0,0,0,0],"sum_hessian":[1.98E2,1.47E2,5.1E1,1.24E2,2.3E1,3.4E1,1.7E1,1.18E2,6E0,9E0,1.4E1,3.3E1,1E0,1E1,7E0,4.3E1,7.5E1,4E0,5E0,1E0,1.3E1,6E0,2.7E1,9E0,1E0,3E0,4E1,4E0,7.1E1,2E0,2E0,2E0,3E0,1E0,1.2E1,4E0,2E0,3E0,2.4E1,2E0,1E0,1.8E1,2.2E1,1E0,3E0,4.4E1,2.7E1,1E0,2E0,1.1E1,1E0,3E0,1E0,1E0,1E0,3E0,2.1E1],"tree_param":{"num_deleted":"0","num_feature":"9","num_nodes":"57","size_leaf_vector":"1"}},{"base_weights":[-9.7127864E-5,3.0041558E-3,-8.92199E-3,3.7498383E-3,-1.0047803E-3,-6.2301345E-3,-1.3660489E-2,3.4463662E-3,1.0343897E-3,-4.942226E-3,1.6871691E-3,-6.511384E-3,1.6661733E-4,-9.5628435E-3,-1.5982321E-3,4.9813534E-3,2.1348635E-3,-1.8803298E-3,-6.6701025E-3,6.843209E-4,8.3007984E-4,-5.4892097E-3,-8.4156817E-4,-1.1651405E-3,-1.5019178E-3,4.447066E-3,1.691644E-3,-4.032767E-3,2.5904714E-3,-7.04513E-4,3.9112472E-4,-8.4998313E-4,-3.6302805E-3,-6.902784E-4,1.955899E-3,-6.7913774E-3,1.0777354E-3,3.6984682E-5,-2.6227237E-4,4.8895885E-4,-9.503305E-4,-7.105768E-5,-6.010702E-4,1.0705307E-3,2.2869206E-4,1.1794269E-5,-4.9190025E-4,1.0344958E-4,6.5063685E-4,-8.3939586E-4,-4.889945E-4,5.1146E-4,-1.2101308E-4],"categories":[],"categories_nodes":[],"categories_segments":[],"categories_sizes":[],"default_left":[0,0,0,0,0,0,0,0,0,0,0,0,0,0,0,0,0,0,0,0,0,0,0,0,0,0,0,0,0,0,0,0,0,0,0,0,0,0,0,0,0,0,0,0,0,0,0,0,0,0,0,0,0],"id":6,"left_children":[1,3,5,7,9,11,13,15,-1,17,19,21,-1,23,-1,25,27,29,31,-1,33,35,-1,-1,37,39,-1,41,43,-1,-1,-1,45,-1,47,49,51,-1,-1,-1,-1,-1,-1,-1,-1,-1,-1,-1,-1,-1,-1,-1,-1],"loss_changes":[5.473115E-3,4.4619804E-4,5.781716E-4,2.1449022E-4,2.627241E-4,8.857821E-5,1.8416438E-5,2.3295544E-4,0E0,4.0363753E-5,6.060739E-5,1.9986415E-5,0E0,1.3402221E-4,0E0,2.7549372E-4,1.987181E-4,1.7711692E-4,2.5155605E-6,0E0,1.3538243E-4,2.2110081E-4,0E0,0E0,7.2636594E-6,3.7982804E-4,0E0,2.8584305E-5,1.3070347E-4,0E0,0E0,0E0,1.9901832E-5,0E0,4.777581E-5,2.2945169E-5,5.2368367E-5,0E0,0E0,0E0,0E0,0E0,0E0,0E0,0E0,0E0,0E0,0E0,0E0,0E0,0E0,0E0,0E0],"parents":[2147483647,0,0,1,1,2,2,3,3,4,4,5,5,6,6,7,7,9,9,10,10,11,11,13,13,15,15,16,16,17,17,18,18,20,20,21,21,24,24,25,25,27,27,28,28,32,32,34,34,35,35,36,36],"right_children":[2,4,6,8,10,12,14,16,-1,18,20,22,-1,24,-1,26,28,30,32,-1,34,36,-1,-1,38,40,-1,42,44,-1,-1,-1,46,-1,48,50,52,-1,-1,-1,-1,-1,-1,-1,-1,-1,-1,-1,-1,-1,-1,-1,-1],"split_conditions":[1.48E2,1.25E2,1.82E2,1.21E2,1.34E2,1.81E2,1.9E2,5.5E1,1.0343897E-3,1.29E2,1.35E2,1.72E2,1.6661733E-4,1.88E2,-1.5982321E-3,5.4E1,5.9E1,1.27E2,1.31E2,6.843209E-4,1.36E2,1.68E2,-8.4156817E-4,-1.1651405E-3,1.89E2,5.3E1,1.691644E-3,5.7E1,6E1,-7.04513E-4,3.9112472E-4,-8.4998313E-4,1.32E2,-6.902784E-4,1.47E2,1.57E2,1.69E2,3.6984682E-5,-2.6227237E-4,4.8895885E-4,-9.503305E-4,-7.105768E-5,-6.010702E-4,1.0705307E-3,2.2869206E-4,1.1794269E-5,-4.9190025E-4,1.0344958E-4,6.5063685E-4,-8.3939586E-4,-4.889945E-4,5.1146E-4,-1.2101308E-4],"split_indices":[0,0,0,0,0,0,0,0,0,0,0,0,0,0,0,0,0,0,0,0,0,0,0,0,0,0,0,0,0,0,0,0,0,0,0,0,0,0,0,0,0,0,0,0,0,0,0,0,0,0,0,0,0],"split_type":[0,0,0,0,0,0,0,0,0,0,0,0,0,0,0,0,0,0,0,0,0,0,0,0,0,0,0,0,0,0,0,0,0,0,0,0,0,0,0,0,0,0,0,0,0,0,0,0,0,0,0,0,0],"sum_hessian":[1.98E2,1.47E2,5.1E1,1.24E2,2.3E1,3.4E1,1.7E1,1.2E2,4E0,9E0,1.4E1,3.3E1,1E0,8E0,9E0,5.4E1,6.6E1,4E0,5E0,1E0,1.3E1,2.4E1,9E0,6E0,2E0,5.3E1,1E0,4E0,6.2E1,2E0,2E0,2E0,3E0,1E0,1.2E1,2E1,4E0,1E0,1E0,5.2E1,1E0,2E0,2E0,1E0,6.1E1,1E0,2E0,1.1E1,1E0,9E0,1.1E1,1E0,3E0],"tree_param":{"num_deleted":"0","num_feature":"9","num_nodes":"53","size_leaf_vector":"1"}},{"base_weights":[-1.0051125E-4,2.717223E-3,-8.118284E-3,3.3979805E-3,-9.416056E-4,-5.6532086E-3,-1.246047E-2,3.0673372E-3,8.533491E-4,-4.6123504E-3,1.5683313E-3,-5.912589E-3,1.582861E-4,-8.761045E-3,-1.4543906E-3,4.5055794E-3,1.803173E-3,-1.7549694E-3,-6.224776E-3,6.501049E-4,7.516337E-4,-3.210285E-3,-6.377001E-3,-1.0652704E-3,-1.4268259E-3,3.9938083E-3,1.607062E-3,-3.763914E-3,2.2299313E-3,-6.5754453E-4,3.6504967E-4,-7.93317E-4,-3.3872873E-3,-6.5576436E-4,1.8183199E-3,-7.025373E-3,4.21829E-3,-1.3478287E-3,-4.9857153E-3,3.513545E-5,-2.4915935E-4,4.4098473E-4,-9.028137E-4,-6.6321096E-5,-5.609979E-4,1.0170043E-3,1.9280954E-4,1.12041835E-5,-4.5910777E-4,9.396722E-5,6.1810465E-4,-2.6346967E-4,-1.2294039E-3,9.331256E-5,5.39431E-4,3.8283618E-4,-6.3616515E-4],"categories":[],"categories_nodes":[],"categories_segments":[],"categories_sizes":[],"default_left":[0,0,0,0,0,0,0,0,0,0,0,0,0,0,0,0,0,0,0,0,0,0,0,0,0,0,0,0,0,0,0,0,0,0,0,0,0,0,0,0,0,0,0,0,0,0,0,0,0,0,0,0,0,0,0,0,0],"id":7,"left_children":[1,3,5,7,9,11,13,15,-1,17,19,21,-1,23,-1,25,27,29,31,-1,33,35,37,-1,39,41,-1,43,45,-1,-1,-1,47,-1,49,51,53,-1,55,-1,-1,-1,-1,-1,-1,-1,-1,-1,-1,-1,-1,-1,-1,-1,-1,-1,-1],"loss_changes":[4.5178584E-3,3.7183415E-4,4.8615644E-4,1.8607767E-4,2.2835382E-4,7.505005E-5,1.1315336E-5,2.0823849E-4,0E0,3.5148856E-5,5.5541674E-5,2.2197375E-5,0E0,1.0966504E-4,0E0,2.613432E-4,1.6282036E-4,1.5428822E-4,2.2133463E-6,0E0,1.2107777E-4,2.2801975E-4,2.0943885E-4,0E0,6.555478E-6,3.3236522E-4,0E0,2.4899899E-5,1.2658443E-4,0E0,0E0,0E0,1.736423E-5,0E0,4.402473E-5,8.3273975E-5,6.5566855E-6,0E0,3.2754487E-4,0E0,0E0,0E0,0E0,0E0,0E0,0E0,0E0,0E0,0E0,0E0,0E0,0E0,0E0,0E0,0E0,0E0,0E0],"parents":[2147483647,0,0,1,1,2,2,3,3,4,4,5,5,6,6,7,7,9,9,10,10,11,11,13,13,15,15,16,16,17,17,18,18,20,20,21,21,22,22,24,24,25,25,27,27,28,28,32,32,34,34,35,35,36,36,38,38],"right_children":[2,4,6,8,10,12,14,16,-1,18,20,22,-1,24,-1,26,28,30,32,-1,34,36,38,-1,40,42,-1,44,46,-1,-1,-1,48,-1,50,52,54,-1,56,-1,-1,-1,-1,-1,-1,-1,-1,-1,-1,-1,-1,-1,-1,-1,-1,-1,-1],"split_conditions":[1.48E2,1.25E2,1.82E2,1.19E2,1.34E2,1.81E2,1.9E2,5.5E1,8.533491E-4,1.29E2,1.35E2,1.54E2,1.582861E-4,1.88E2,-1.4543906E-3,5.4E1,5.9E1,1.27E2,1.31E2,6.501049E-4,1.36E2,1.52E2,1.57E2,-1.0652704E-3,1.89E2,5.3E1,1.607062E-3,5.7E1,6E1,-6.5754453E-4,3.6504967E-4,-7.93317E-4,1.32E2,-6.5576436E-4,1.47E2,1.51E2,1.53E2,-1.3478287E-3,1.6E2,3.513545E-5,-2.4915935E-4,4.4098473E-4,-9.028137E-4,-6.6321096E-5,-5.609979E-4,1.0170043E-3,1.9280954E-4,1.12041835E-5,-4.5910777E-4,9.396722E-5,6.1810465E-4,-2.6346967E-4,-1.2294039E-3,9.331256E-5,5.39431E-4,3.8283618E-4,-6.3616515E-4],"split_indices":[0,0,0,0,0,0,0,0,0,0,0,0,0,0,0,0,0,0,0,0,0,0,0,0,0,0,0,0,0,0,0,0,0,0,0,0,0,0,0,0,0,0,0,0,0,0,0,0,0,0,0,0,0,0,0,0,0],"split_type":[0,0,0,0,0,0,0,0,0,0,0,0,0,0,0,0,0,0,0,0,0,0,0,0,0,0,0,0,0,0,0,0,0,0,0,0,0,0,0,0,0,0,0,0,0,0,0,0,0,0,0,0,0,0,0,0,0],"sum_hessian":[1.98E2,1.47E2,5.1E1,1.24E2,2.3E1,3.4E1,1.7E1,1.18E2,6E0,9E0,1.4E1,3.3E1,1E0,8E0,9E0,5.4E1,6.4E1,4E0,5E0,1E0,1.3E1,6E0,2.7E1,6E0,2E0,5.3E1,1E0,4E0,6E1,2E0,2E0,2E0,3E0,1E0,1.2E1,4E0,2E0,3E0,2.4E1,1E0,1E0,5.2E1,1E0,2E0,2E0,1E0,5.9E1,1E0,2E0,1.1E1,1E0,3E0,1E0,1E0,1E0,3E0,2.1E1],"tree_param":{"num_deleted":"0","num_feature":"9","num_nodes":"57","size_leaf_vector":"1"}},{"base_weights":[-1.0696113E-4,2.4573454E-3,-7.403315E-3,3.0788248E-3,-8.819153E-4,-5.153688E-3,-1.1366295E-2,2.8155749E-3,8.8337064E-4,-4.3044863E-3,1.4585932E-3,-5.3937216E-3,1.5037209E-4,-8.483142E-3,-1.3909843E-3,4.379919E-3,1.8970275E-3,-1.6379654E-3,-5.809173E-3,6.175995E-4,6.804935E-4,-7.09545E-3,-4.4972813E-3,-9.5075724E-4,8.805841E-5,-2.718851E-3,4.965654E-3,-2.6433289E-3,2.1781728E-3,-6.137073E-4,3.4071307E-4,-7.404298E-4,-3.1605363E-3,-3.2128333E-3,2.5591075E-3,-3.012125E-3,-1.2467407E-3,3.5412313E-4,-5.754407E-3,-3.831178E-4,3.09065E-5,3.9808918E-4,8.5301884E-4,-1.2218952E-5,-3.2430663E-4,5.5839535E-4,1.7390025E-4,1.0643899E-5,-4.285008E-4,-6.229758E-4,-9.0116264E-5,4.3522293E-4,-1.2186319E-4,-6.6214026E-4,4.0073792E-4,-4.2876625E-4,-7.0857344E-4],"categories":[],"categories_nodes":[],"categories_segments":[],"categories_sizes":[],"default_left":[0,0,0,0,0,0,0,0,0,0,0,0,0,0,0,0,0,0,0,0,0,0,0,0,0,0,0,0,0,0,0,0,0,0,0,0,0,0,0,0,0,0,0,0,0,0,0,0,0,0,0,0,0,0,0,0,0],"id":8,"left_children":[1,3,5,7,9,11,13,15,-1,17,19,21,-1,23,-1,25,27,29,31,-1,33,35,37,-1,-1,39,41,43,45,-1,-1,-1,47,49,51,53,-1,-1,55,-1,-1,-1,-1,-1,-1,-1,-1,-1,-1,-1,-1,-1,-1,-1,-1,-1,-1],"loss_changes":[3.7415002E-3,3.0985702E-4,4.0501356E-4,1.6449939E-4,1.9853187E-4,6.404065E-5,1.4002668E-5,1.6555889E-4,0E0,3.0607553E-5,5.0856415E-5,1.995673E-5,0E0,1.13889575E-4,0E0,1.9645295E-4,1.0532464E-4,1.3440195E-4,1.9478757E-6,0E0,1.1061881E-4,1.8180104E-4,2.730132E-4,0E0,0E0,1.4656214E-5,1.0996126E-4,7.1638387E-6,1.009726E-4,0E0,0E0,0E0,1.5150574E-5,2.9256658E-5,7.304322E-5,2.0388183E-4,0E0,0E0,1.2578559E-5,0E0,0E0,0E0,0E0,0E0,0E0,0E0,0E0,0E0,0E0,0E0,0E0,0E0,0E0,0E0,0E0,0E0,0E0],"parents":[2147483647,0,0,1,1,2,2,3,3,4,4,5,5,6,6,7,7,9,9,10,10,11,11,13,13,15,15,16,16,17,17,18,18,20,20,21,21,22,22,25,25,26,26,27,27,28,28,32,32,33,33,34,34,35,35,38,38],"right_children":[2,4,6,8,10,12,14,16,-1,18,20,22,-1,24,-1,26,28,30,32,-1,34,36,38,-1,-1,40,42,44,46,-1,-1,-1,48,50,52,54,-1,-1,56,-1,-1,-1,-1,-1,-1,-1,-1,-1,-1,-1,-1,-1,-1,-1,-1,-1,-1],"split_conditions":[1.48E2,1.25E2,1.82E2,1.21E2,1.34E2,1.81E2,1.92E2,4.4E1,8.8337064E-4,1.29E2,1.35E2,1.57E2,1.5037209E-4,1.91E2,-1.3909843E-3,4E0,4.8E1,1.27E2,1.31E2,6.175995E-4,1.39E2,1.54E2,1.6E2,-9.5075724E-4,8.805841E-5,3E0,3.7E1,4.5E1,5.5E1,-6.137073E-4,3.4071307E-4,-7.404298E-4,1.32E2,1.36E2,1.45E2,1.52E2,-1.2467407E-3,3.5412313E-4,1.72E2,-3.831178E-4,3.09065E-5,3.9808918E-4,8.5301884E-4,-1.2218952E-5,-3.2430663E-4,5.5839535E-4,1.7390025E-4,1.0643899E-5,-4.285008E-4,-6.229758E-4,-9.0116264E-5,4.3522293E-4,-1.2186319E-4,-6.6214026E-4,4.0073792E-4,-4.2876625E-4,-7.0857344E-4],"split_indices":[0,0,0,0,0,0,0,0,0,0,0,0,0,0,0,0,0,0,0,0,0,0,0,0,0,0,0,0,0,0,0,0,0,0,0,0,0,0,0,0,0,0,0,0,0,0,0,0,0,0,0,0,0,0,0,0,0],"split_type":[0,0,0,0,0,0,0,0,0,0,0,0,0,0,0,0,0,0,0,0,0,0,0,0,0,0,0,0,0,0,0,0,0,0,0,0,0,0,0,0,0,0,0,0,0,0,0,0,0,0,0,0,0,0,0,0,0],"sum_hessian":[1.98E2,1.47E2,5.1E1,1.24E2,2.3E1,3.4E1,1.7E1,1.2E2,4E0,9E0,1.4E1,3.3E1,1E0,1E1,7E0,4.3E1,7.7E1,4E0,5E0,1E0,1.3E1,9E0,2.4E1,9E0,1E0,3E0,4E1,4E0,7.3E1,2E0,2E0,2E0,3E0,4E0,9E0,6E0,3E0,3E0,2.1E1,2E0,1E0,3.3E1,7E0,1E0,3E0,7E0,6.6E1,1E0,2E0,1E0,3E0,6E0,3E0,4E0,2E0,1.2E1,9E0],"tree_param":{"num_deleted":"0","num_feature":"9","num_nodes":"57","size_leaf_vector":"1"}},{"base_weights":[-1.1350192E-4,2.218127E-3,-6.747494E-3,2.7883644E-3,-8.4428117E-4,-5.3283656E-3,-1.2174997E-3,2.5447148E-3,8.1270095E-3,-4.0171593E-3,1.3272563E-3,-4.1143596E-3,-6.6453014E-3,3.962346E-3,1.7124009E-3,1.1521488E-3,4.398018E-4,-1.5287579E-3,-5.421301E-3,5.7449937E-4,5.932927E-4,-5.350428E-3,1.8999993E-3,-7.299751E-4,-7.216533E-4,-2.5350228E-3,4.4995933E-3,-2.4463E-3,1.9702537E-3,-5.7279266E-4,3.1799971E-4,-6.910672E-4,-2.9489473E-3,2.0348157E-3,-5.4582657E-4,-2.7482552E-3,-6.20808E-3,5.39133E-4,-3.2066554E-4,8.091629E-5,-1.8916429E-4,-3.575772E-4,2.9361248E-5,3.594501E-4,7.7837857E-4,-1.1608005E-5,-2.9998348E-4,5.095348E-4,1.5677014E-4,1.01119285E-5,-3.9993427E-4,-5.727361E-5,3.979172E-4,-6.0916843E-4,3.7402113E-4,-1.1532344E-3,-3.9159856E-4,-3.50375E-4,4.6142936E-4],"categories":[],"categories_nodes":[],"categories_segments":[],"categories_sizes":[],"default_left":[0,0,0,0,0,0,0,0,0,0,0,0,0,0,0,0,0,0,0,0,0,0,0,0,0,0,0,0,0,0,0,0,0,0,0,0,0,0,0,0,0,0,0,0,0,0,0,0,0,0,0,0,0,0,0,0,0,0,0],"id":9,"left_children":[1,3,5,7,9,11,-1,13,15,17,19,21,23,25,27,-1,-1,29,31,33,-1,35,37,-1,39,41,43,45,47,-1,-1,-1,49,51,-1,53,55,-1,57,-1,-1,-1,-1,-1,-1,-1,-1,-1,-1,-1,-1,-1,-1,-1,-1,-1,-1,-1,-1],"loss_changes":[3.0931004E-3,2.6080647E-4,3.3564796E-4,1.4191389E-4,1.7069236E-4,4.1405787E-5,0E0,1.359845E-4,1.26181985E-5,2.6652837E-5,4.8595797E-5,1.9601977E-4,6.8389985E-5,1.6499707E-4,8.846176E-5,0E0,0E0,1.17079086E-4,1.7142884E-6,1.3444299E-4,0E0,2.9805582E-5,4.0494186E-5,0E0,6.9037637E-6,1.2825494E-5,9.38935E-5,6.1010687E-6,8.510504E-5,0E0,0E0,0E0,1.3219513E-5,6.311913E-5,0E0,1.7464027E-4,1.3789529E-4,0E0,7.90009E-5,0E0,0E0,0E0,0E0,0E0,0E0,0E0,0E0,0E0,0E0,0E0,0E0,0E0,0E0,0E0,0E0,0E0,0E0,0E0,0E0],"parents":[2147483647,0,0,1,1,2,2,3,3,4,4,5,5,7,7,8,8,9,9,10,10,11,11,12,12,13,13,14,14,17,17,18,18,19,19,21,21,22,22,24,24,25,25,26,26,27,27,28,28,32,32,33,33,35,35,36,36,38,38],"right_children":[2,4,6,8,10,12,-1,14,16,18,20,22,24,26,28,-1,-1,30,32,34,-1,36,38,-1,40,42,44,46,48,-1,-1,-1,50,52,-1,54,56,-1,58,-1,-1,-1,-1,-1,-1,-1,-1,-1,-1,-1,-1,-1,-1,-1,-1,-1,-1,-1,-1],"split_conditions":[1.48E2,1.25E2,1.9E2,1.21E2,1.34E2,1.72E2,-1.2174997E-3,4.4E1,1.22E2,1.29E2,1.47E2,1.68E2,1.88E2,4E0,4.8E1,1.1521488E-3,4.398018E-4,1.27E2,1.31E2,1.45E2,5.932927E-4,1.54E2,1.69E2,-7.299751E-4,1.89E2,3E0,3.7E1,4.5E1,5.5E1,-5.7279266E-4,3.1799971E-4,-6.910672E-4,1.32E2,1.39E2,-5.4582657E-4,1.52E2,1.57E2,5.39133E-4,1.71E2,8.091629E-5,-1.8916429E-4,-3.575772E-4,2.9361248E-5,3.594501E-4,7.7837857E-4,-1.1608005E-5,-2.9998348E-4,5.095348E-4,1.5677014E-4,1.01119285E-5,-3.9993427E-4,-5.727361E-5,3.979172E-4,-6.0916843E-4,3.7402113E-4,-1.1532344E-3,-3.9159856E-4,-3.50375E-4,4.6142936E-4],"split_indices":[0,0,0,0,0,0,0,0,0,0,0,0,0,0,0,0,0,0,0,0,0,0,0,0,0,0,0,0,0,0,0,0,0,0,0,0,0,0,0,0,0,0,0,0,0,0,0,0,0,0,0,0,0,0,0,0,0,0,0],"split_type":[0,0,0,0,0,0,0,0,0,0,0,0,0,0,0,0,0,0,0,0,0,0,0,0,0,0,0,0,0,0,0,0,0,0,0,0,0,0,0,0,0,0,0,0,0,0,0,0,0,0,0,0,0,0,0,0,0,0,0],"sum_hessian":[1.98E2,1.47E2,5.1E1,1.24E2,2.3E1,4.2E1,9E0,1.2E2,4E0,9E0,1.4E1,2.4E1,1.8E1,4.3E1,7.7E1,1E0,3E0,4E0,5E0,1.3E1,1E0,2E1,4E0,1.6E1,2E0,3E0,4E1,4E0,7.3E1,2E0,2E0,2E0,3E0,1.1E1,2E0,6E0,1.4E1,1E0,3E0,1E0,1E0,2E0,1E0,3.3E1,7E0,1E0,3E0,7E0,6.6E1,1E0,2E0,5E0,6E0,4E0,2E0,3E0,1.1E1,2E0,1E0],"tree_param":{"num_deleted":"0","num_feature":"9","num_nodes":"59","size_leaf_vector":"1"}},{"base_weights":[-1.0906482E-4,1.9293359E-3,-6.388441E-3,2.531585E-3,-9.303115E-4,-4.4403663E-3,-9.496772E-3,2.256304E-3,6.8497064E-4,-3.749007E-3,6.8731443E-4,-7.754922E-3,-3.3772027E-3,-7.083882E-3,-1.1627398E-3,2.8680214E-3,1.657935E-4,-1.4268339E-3,-5.0593168E-3,5.895838E-4,3.4116645E-5,-2.9036924E-3,-1.0667421E-3,3.5693496E-4,-4.4384636E-3,-8.081332E-3,1.4453083E-4,2.1205994E-3,8.784821E-3,-5.175352E-3,1.5519274E-3,-5.34606E-4,2.9680034E-4,-6.4499676E-4,-2.7514994E-3,-5.8896246E-4,7.72452E-4,-1.1043682E-3,3.4908652E-3,-4.8032594E-3,1.7935187E-4,-1.0711454E-3,-5.423929E-3,3.0872744E-4,-3.8561673E-4,1.1689424E-3,1.5055612E-4,-2.0167977E-4,-7.661641E-4,7.3845836E-4,3.077999E-5,9.606779E-6,-3.7327112E-4,2.2304237E-4,-1.420715E-4,4.990846E-5,4.7372133E-4,-6.6714286E-4,-3.4866852E-4,-2.883956E-4,-1.0331884E-3],"categories":[],"categories_nodes":[],"categories_segments":[],"categories_sizes":[],"default_left":[0,0,0,0,0,0,0,0,0,0,0,0,0,0,0,0,0,0,0,0,0,0,0,0,0,0,0,0,0,0,0,0,0,0,0,0,0,0,0,0,0,0,0,0,0,0,0,0,0,0,0,0,0,0,0,0,0,0,0,0,0],"id":10,"left_children":[1,3,5,7,9,11,13,15,-1,17,19,21,23,25,-1,27,29,31,33,-1,35,37,-1,-1,39,41,-1,43,45,47,49,-1,-1,-1,51,-1,53,-1,55,57,-1,-1,59,-1,-1,-1,-1,-1,-1,-1,-1,-1,-1,-1,-1,-1,-1,-1,-1,-1,-1],"loss_changes":[2.5595024E-3,2.6241044E-4,2.5453838E-4,1.3313204E-4,1.2568581E-4,8.65754E-5,1.0170275E-5,1.5170185E-4,0E0,2.320885E-5,6.103839E-5,6.7929446E-5,2.0751718E-4,1.0526186E-4,0E0,3.8822676E-4,2.1533098E-4,1.01988924E-4,1.5091355E-6,0E0,7.890248E-5,2.4675854E-4,0E0,0E0,6.090291E-5,1.1794735E-5,0E0,4.9144507E-4,1.9383442E-4,3.166648E-5,1.646281E-4,0E0,0E0,0E0,1.1534861E-5,0E0,5.4329998E-5,0E0,8.822128E-6,3.0849653E-5,0E0,0E0,5.7465833E-5,0E0,0E0,0E0,0E0,0E0,0E0,0E0,0E0,0E0,0E0,0E0,0E0,0E0,0E0,0E0,0E0,0E0,0E0],"parents":[2147483647,0,0,1,1,2,2,3,3,4,4,5,5,6,6,7,7,9,9,10,10,11,11,12,12,13,13,15,15,16,16,17,17,18,18,20,20,21,21,24,24,25,25,27,27,28,28,29,29,30,30,34,34,36,36,38,38,39,39,42,42],"right_children":[2,4,6,8,10,12,14,16,-1,18,20,22,24,26,-1,28,30,32,34,-1,36,38,-1,-1,40,42,-1,44,46,48,50,-1,-1,-1,52,-1,54,-1,56,58,-1,-1,60,-1,-1,-1,-1,-1,-1,-1,-1,-1,-1,-1,-1,-1,-1,-1,-1,-1,-1],"split_conditions":[1.51E2,1.25E2,1.82E2,1.19E2,1.34E2,1.57E2,1.92E2,9.2E1,6.8497064E-4,1.29E2,1.35E2,1.54E2,1.6E2,1.91E2,-1.1627398E-3,8.3E1,9.7E1,1.27E2,1.31E2,5.895838E-4,1.36E2,1.52E2,-1.0667421E-3,3.5693496E-4,1.81E2,1.85E2,1.4453083E-4,7.2E1,8.9E1,9.5E1,1E2,-5.34606E-4,2.9680034E-4,-6.4499676E-4,1.32E2,-5.8896246E-4,1.45E2,-1.1043682E-3,1.53E2,1.67E2,1.7935187E-4,-1.0711454E-3,1.9E2,3.0872744E-4,-3.8561673E-4,1.1689424E-3,1.5055612E-4,-2.0167977E-4,-7.661641E-4,7.3845836E-4,3.077999E-5,9.606779E-6,-3.7327112E-4,2.2304237E-4,-1.420715E-4,4.990846E-5,4.7372133E-4,-6.6714286E-4,-3.4866852E-4,-2.883956E-4,-1.0331884E-3],"split_indices":[0,0,0,0,0,0,0,0,0,0,0,0,0,0,0,0,0,0,0,0,0,0,0,0,0,0,0,0,0,0,0,0,0,0,0,0,0,0,0,0,0,0,0,0,0,0,0,0,0,0,0,0,0,0,0,0,0,0,0,0,0],"split_type":[0,0,0,0,0,0,0,0,0,0,0,0,0,0,0,0,0,0,0,0,0,0,0,0,0,0,0,0,0,0,0,0,0,0,0,0,0,0,0,0,0,0,0,0,0,0,0,0,0,0,0,0,0,0,0,0,0,0,0,0,0],"sum_hessian":[1.98E2,1.5E2,4.8E1,1.24E2,2.6E1,3.1E1,1.7E1,1.18E2,6E0,9E0,1.7E1,6E0,2.5E1,1E1,7E0,9.1E1,2.7E1,4E0,5E0,1E0,1.6E1,3E0,3E0,3E0,2.2E1,9E0,1E0,8.2E1,9E0,5E0,2.2E1,2E0,2E0,2E0,3E0,1E0,1.5E1,1E0,2E0,2.1E1,1E0,3E0,6E0,7.1E1,1.1E1,6E0,3E0,3E0,2E0,3E0,1.9E1,1E0,2E0,9E0,6E0,1E0,1E0,7E0,1.4E1,5E0,1E0],"tree_param":{"num_deleted":"0","num_feature":"9","num_nodes":"61","size_leaf_vector":"1"}},{"base_weights":[-1.2315263E-4,1.7401385E-3,-5.862618E-3,2.2922591E-3,-8.8042574E-4,-4.0628016E-3,-8.736591E-3,1.999879E-3,5.838507E-3,-3.4987568E-3,6.231152E-4,-7.2147846E-3,-3.0579292E-3,-7.5882236E-3,-1.4129415E-3,2.5947294E-3,-1.8189504E-4,3.424591E-3,7.0847212E-3,-1.3317168E-3,-4.7214977E-3,5.6010485E-4,8.221935E-7,-2.7585104E-3,-9.867363E-4,3.3016428E-3,-4.030988E-3,-8.205158E-4,-1.9741456E-3,1.9076169E-3,8.038292E-3,-4.81913E-3,1.1516908E-3,7.5867324E-4,4.8737228E-4,1.0602921E-3,3.5544412E-4,-4.989664E-4,2.770136E-4,-6.01998E-4,-2.5672615E-3,-5.595148E-4,7.0026703E-4,-1.0491506E-3,3.316323E-3,9.0526046E-5,3.7986835E-4,-4.36911E-3,1.7038434E-4,-2.681315E-5,-2.693087E-4,2.78284E-4,-3.5026894E-4,1.068748E-3,1.3926403E-4,-1.8655435E-4,-7.150869E-4,6.8307295E-4,-1.7430055E-5,-3.232494E-4,2.8048258E-4,9.126961E-6,-3.4838618E-4,5.4897816E-4,1.4980634E-6,4.7412515E-5,4.5003594E-4,-6.0876686E-4,-3.1612715E-4],"categories":[],"categories_nodes":[],"categories_segments":[],"categories_sizes":[],"default_left":[0,0,0,0,0,0,0,0,0,0,0,0,0,0,0,0,0,0,0,0,0,0,0,0,0,0,0,0,0,0,0,0,0,0,0,0,0,0,0,0,0,0,0,0,0,0,0,0,0,0,0,0,0,0,0,0,0,0,0,0,0,0,0,0,0,0,0,0,0],"id":11,"left_children":[1,3,5,7,9,11,13,15,17,19,21,23,25,27,-1,29,31,33,35,37,39,-1,41,43,-1,45,47,-1,49,51,53,55,57,-1,59,-1,-1,-1,-1,-1,61,-1,63,-1,65,-1,-1,67,-1,-1,-1,-1,-1,-1,-1,-1,-1,-1,-1,-1,-1,-1,-1,-1,-1,-1,-1,-1,-1],"loss_changes":[2.1383662E-3,2.2049519E-4,2.1796359E-4,1.1793029E-4,1.0847287E-4,7.929257E-5,4.2556785E-6,1.5231807E-4,2.8120412E-6,2.0209569E-5,5.5754594E-5,5.5525103E-5,1.7420309E-4,4.2681582E-5,0E0,3.2877724E-4,1.6633807E-4,5.742803E-5,2.4413719E-5,8.884384E-5,1.3285753E-6,0E0,7.0457325E-5,2.2269986E-4,0E0,1.3255994E-6,5.2042888E-5,0E0,2.9574712E-6,4.0277105E-4,1.61172E-4,2.7981689E-5,1.5932808E-4,0E0,4.3549047E-5,0E0,0E0,0E0,0E0,0E0,1.0065214E-5,0E0,5.2432784E-5,0E0,7.962062E-6,0E0,0E0,2.6421534E-5,0E0,0E0,0E0,0E0,0E0,0E0,0E0,0E0,0E0,0E0,0E0,0E0,0E0,0E0,0E0,0E0,0E0,0E0,0E0,0E0,0E0],"parents":[2147483647,0,0,1,1,2,2,3,3,4,4,5,5,6,6,7,7,8,8,9,9,10,10,11,11,12,12,13,13,15,15,16,16,17,17,18,18,19,19,20,20,22,22,23,23,25,25,26,26,28,28,29,29,30,30,31,31,32,32,34,34,40,40,42,42,44,44,47,47],"right_children":[2,4,6,8,10,12,14,16,18,20,22,24,26,28,-1,30,32,34,36,38,40,-1,42,44,-1,46,48,-1,50,52,54,56,58,-1,60,-1,-1,-1,-1,-1,62,-1,64,-1,66,-1,-1,68,-1,-1,-1,-1,-1,-1,-1,-1,-1,-1,-1,-1,-1,-1,-1,-1,-1,-1,-1,-1,-1],"split_conditions":[1.51E2,1.25E2,1.82E2,1.17E2,1.34E2,1.57E2,1.98E2,9.2E1,1.21E2,1.29E2,1.35E2,1.54E2,1.6E2,1.96E2,-1.4129415E-3,8.3E1,9.7E1,1.18E2,1.22E2,1.27E2,1.31E2,5.6010485E-4,1.36E2,1.52E2,-9.867363E-4,1.58E2,1.81E2,-8.205158E-4,1.97E2,7.2E1,8.9E1,9.5E1,1E2,7.5867324E-4,1.19E2,1.0602921E-3,3.5544412E-4,-4.989664E-4,2.770136E-4,-6.01998E-4,1.32E2,-5.595148E-4,1.37E2,-1.0491506E-3,1.53E2,9.0526046E-5,3.7986835E-4,1.67E2,1.7038434E-4,-2.681315E-5,-2.693087E-4,2.78284E-4,-3.5026894E-4,1.068748E-3,1.3926403E-4,-1.8655435E-4,-7.150869E-4,6.8307295E-4,-1.7430055E-5,-3.232494E-4,2.8048258E-4,9.126961E-6,-3.4838618E-4,5.4897816E-4,1.4980634E-6,4.7412515E-5,4.5003594E-4,-6.0876686E-4,-3.1612715E-4],"split_indices":[0,0,0,0,0,0,0,0,0,0,0,0,0,0,0,0,0,0,0,0,0,0,0,0,0,0,0,0,0,0,0,0,0,0,0,0,0,0,0,0,0,0,0,0,0,0,0,0,0,0,0,0,0,0,0,0,0,0,0,0,0,0,0,0,0,0,0,0,0],"split_type":[0,0,0,0,0,0,0,0,0,0,0,0,0,0,0,0,0,0,0,0,0,0,0,0,0,0,0,0,0,0,0,0,0,0,0,0,0,0,0,0,0,0,0,0,0,0,0,0,0,0,0,0,0,0,0,0,0,0,0,0,0,0,0,0,0,0,0,0,0],"sum_hessian":[1.98E2,1.5E2,4.8E1,1.24E2,2.6E1,3.1E1,1.7E1,1.16E2,8E0,9E0,1.7E1,6E0,2.5E1,1.6E1,1E0,9.1E1,2.5E1,4E0,4E0,4E0,5E0,1E0,1.6E1,3E0,3E0,3E0,2.2E1,1.4E1,2E0,8.2E1,9E0,5E0,2E1,1E0,3E0,1E0,3E0,2E0,2E0,2E0,3E0,1E0,1.5E1,1E0,2E0,1E0,2E0,2.1E1,1E0,1E0,1E0,7.1E1,1.1E1,6E0,3E0,3E0,2E0,3E0,1.7E1,1E0,2E0,1E0,2E0,1E0,1.4E1,1E0,1E0,7E0,1.4E1],"tree_param":{"num_deleted":"0","num_feature":"9","num_nodes":"69","size_leaf_vector":"1"}},{"base_weights":[-1.20552344E-4,1.6514631E-3,-5.1616626E-3,2.0872816E-3,-6.872353E-4,-4.0296298E-3,-9.5132383E-4,1.8075784E-3,5.4915017E-3,-2.4682858E-3,2.053064E-3,-4.2301263E-3,5.3703785E-5,2.347597E-3,-1.7277896E-4,3.2253147E-3,6.6593885E-3,-1.7084754E-3,-4.938036E-3,3.4456423E-3,-8.972138E-4,-3.026161E-3,-5.7518325E-4,1.3231636E-4,-1.2426078E-4,1.7452297E-3,7.7088475E-3,-4.48749E-3,1.068223E-3,7.2073936E-4,4.2794645E-4,1.0072768E-3,3.287852E-4,-2.7200629E-3,5.215287E-4,-5.9360865E-4,-1.4709681E-4,1.7245114E-3,4.3053628E-4,-5.000661E-4,5.706564E-4,-4.167301E-3,2.3718595E-3,2.508411E-4,-2.6158692E-4,1.0704477E-3,1.2881905E-4,-1.7256216E-4,-6.6741504E-4,6.3184276E-4,-1.5783477E-5,-3.070876E-4,2.6178462E-4,-3.265196E-4,3.7352245E-7,2.8090974E-4,-7.646233E-5,-1.3781711E-4,-4.5555914E-4,5.4541527E-4,2.3774803E-5],"categories":[],"categories_nodes":[],"categories_segments":[],"categories_sizes":[],"default_left":[0,0,0,0,0,0,0,0,0,0,0,0,0,0,0,0,0,0,0,0,0,0,0,0,0,0,0,0,0,0,0,0,0,0,0,0,0,0,0,0,0,0,0,0,0,0,0,0,0,0,0,0,0,0,0,0,0,0,0,0,0],"id":12,"left_children":[1,3,5,7,9,11,-1,13,15,17,19,21,23,25,27,29,31,33,35,37,39,41,-1,-1,-1,43,45,47,49,-1,51,-1,-1,53,-1,-1,-1,55,-1,-1,-1,57,59,-1,-1,-1,-1,-1,-1,-1,-1,-1,-1,-1,-1,-1,-1,-1,-1,-1,-1],"loss_changes":[1.7861765E-3,1.5228312E-4,2.1782378E-4,1.0909513E-4,1.2220224E-4,3.543112E-5,0E0,1.2552887E-4,2.3411994E-6,1.9711624E-5,4.4176406E-5,5.7709403E-5,6.5810195E-6,2.8365495E-4,1.4401232E-4,5.261233E-5,2.4423905E-5,1.0523781E-4,1.6491322E-6,2.9331932E-6,1.369296E-4,1.6388172E-4,0E0,0E0,0E0,2.8613966E-4,1.5931582E-4,2.471856E-5,1.3617541E-4,0E0,3.8687354E-5,0E0,0E0,1.7830185E-5,0E0,0E0,0E0,1.2946624E-5,0E0,0E0,0E0,1.6464415E-5,3.1593077E-5,0E0,0E0,0E0,0E0,0E0,0E0,0E0,0E0,0E0,0E0,0E0,0E0,0E0,0E0,0E0,0E0,0E0,0E0],"parents":[2147483647,0,0,1,1,2,2,3,3,4,4,5,5,7,7,8,8,9,9,10,10,11,11,12,12,13,13,14,14,15,15,16,16,17,17,18,18,19,19,20,20,21,21,25,25,26,26,27,27,28,28,30,30,33,33,37,37,41,41,42,42],"right_children":[2,4,6,8,10,12,-1,14,16,18,20,22,24,26,28,30,32,34,36,38,40,42,-1,-1,-1,44,46,48,50,-1,52,-1,-1,54,-1,-1,-1,56,-1,-1,-1,58,60,-1,-1,-1,-1,-1,-1,-1,-1,-1,-1,-1,-1,-1,-1,-1,-1,-1,-1],"split_conditions":[1.48E2,1.25E2,1.9E2,1.17E2,1.39E2,1.88E2,-9.5132383E-4,9.2E1,1.21E2,1.37E2,1.45E2,1.72E2,1.89E2,8.4E1,9.7E1,1.18E2,1.22E2,1.36E2,1.38E2,1.42E2,1.47E2,1.68E2,-5.7518325E-4,1.3231636E-4,-1.2426078E-4,7.2E1,8.9E1,9.5E1,1E2,7.2073936E-4,1.19E2,1.0072768E-3,3.287852E-4,1.34E2,5.215287E-4,-5.9360865E-4,-1.4709681E-4,1.41E2,4.3053628E-4,-5.000661E-4,5.706564E-4,1.51E2,1.69E2,2.508411E-4,-2.6158692E-4,1.0704477E-3,1.2881905E-4,-1.7256216E-4,-6.6741504E-4,6.3184276E-4,-1.5783477E-5,-3.070876E-4,2.6178462E-4,-3.265196E-4,3.7352245E-7,2.8090974E-4,-7.646233E-5,-1.3781711E-4,-4.5555914E-4,5.4541527E-4,2.3774803E-5],"split_indices":[0,0,0,0,0,0,0,0,0,0,0,0,0,0,0,0,0,0,0,0,0,0,0,0,0,0,0,0,0,0,0,0,0,0,0,0,0,0,0,0,0,0,0,0,0,0,0,0,0,0,0,0,0,0,0,0,0,0,0,0,0],"split_type":[0,0,0,0,0,0,0,0,0,0,0,0,0,0,0,0,0,0,0,0,0,0,0,0,0,0,0,0,0,0,0,0,0,0,0,0,0,0,0,0,0,0,0,0,0,0,0,0,0,0,0,0,0,0,0,0,0,0,0,0,0],"sum_hessian":[1.98E2,1.47E2,5.1E1,1.24E2,2.3E1,4.2E1,9E0,1.16E2,8E0,1.4E1,9E0,4E1,2E0,9.1E1,2.5E1,4E0,4E0,1.2E1,2E0,6E0,3E0,2.4E1,1.6E1,1E0,1E0,8.3E1,8E0,5E0,2E1,1E0,3E0,1E0,3E0,1.1E1,1E0,1E0,1E0,3E0,3E0,2E0,1E0,2E1,4E0,7.1E1,1.2E1,5E0,3E0,3E0,2E0,3E0,1.7E1,1E0,2E0,9E0,2E0,2E0,1E0,3E0,1.7E1,1E0,3E0],"tree_param":{"num_deleted":"0","num_feature":"9","num_nodes":"61","size_leaf_vector":"1"}},{"base_weights":[-1.0049029E-4,1.5075064E-3,-4.675164E-3,1.9023605E-3,-6.1183795E-4,-3.172889E-3,-7.336522E-3,1.6350632E-3,5.1658517E-3,-2.257818E-3,1.9183159E-3,-3.3783412E-3,1.906246E-4,-6.2448718E-3,-1.2947292E-3,2.1257515E-3,-1.6410534E-4,3.03787E-3,6.2606633E-3,-1.5226052E-3,-4.6911337E-3,3.1917947E-3,-7.8985095E-4,-4.9357535E-3,-2.6202428E-3,-6.829276E-4,-1.241227E-3,1.5360663E-3,6.807563E-3,-4.1787378E-3,9.90747E-4,6.847024E-4,3.7382543E-4,9.5691235E-4,3.0412673E-4,-2.475242E-3,4.954517E-4,-5.639285E-4,-1.397416E-4,1.6031712E-3,3.9824695E-4,-4.667292E-4,5.421236E-4,-2.0307046E-3,-8.78565E-4,3.4307464E-4,-3.6013208E-3,2.2093953E-5,-2.08278E-4,2.261049E-4,-2.9418347E-4,9.0441835E-4,1.1915863E-4,-1.596205E-4,-6.2292017E-4,5.8445486E-4,-1.4291704E-5,-2.9173345E-4,2.4433236E-4,-1.7337935E-4,-5.315587E-4,2.6218194E-4,-7.263869E-5,-4.915512E-4,3.4542085E-4,-6.2240736E-4,-2.8596193E-4],"categories":[],"categories_nodes":[],"categories_segments":[],"categories_sizes":[],"default_left":[0,0,0,0,0,0,0,0,0,0,0,0,0,0,0,0,0,0,0,0,0,0,0,0,0,0,0,0,0,0,0,0,0,0,0,0,0,0,0,0,0,0,0,0,0,0,0,0,0,0,0,0,0,0,0,0,0,0,0,0,0,0,0,0,0,0,0],"id":13,"left_children":[1,3,5,7,9,11,13,15,17,19,21,23,-1,25,-1,27,29,31,33,35,37,39,41,43,45,-1,47,49,51,53,55,-1,57,-1,-1,59,-1,-1,-1,61,-1,-1,-1,63,-1,-1,65,-1,-1,-1,-1,-1,-1,-1,-1,-1,-1,-1,-1,-1,-1,-1,-1,-1,-1,-1,-1],"loss_changes":[1.4709037E-3,1.2501501E-4,1.8462283E-4,1.0059384E-4,1.0428119E-4,4.2963133E-5,2.93958E-5,1.0364005E-4,1.9485597E-6,1.9692328E-5,3.7008977E-5,2.7209986E-5,0E0,4.12339E-5,0E0,2.435362E-4,1.2468405E-4,4.817919E-5,2.4153953E-5,9.24781E-5,1.488399E-6,2.4080073E-6,1.21635E-4,9.400034E-5,1.6076752E-4,0E0,4.151641E-6,2.761028E-4,1.1483114E-4,2.182927E-5,1.16389456E-4,0E0,3.4372188E-5,0E0,0E0,1.6055506E-5,0E0,0E0,0E0,1.1396456E-5,0E0,0E0,0E0,1.2773961E-4,0E0,0E0,2.4998095E-5,0E0,0E0,0E0,0E0,0E0,0E0,0E0,0E0,0E0,0E0,0E0,0E0,0E0,0E0,0E0,0E0,0E0,0E0,0E0,0E0],"parents":[2147483647,0,0,1,1,2,2,3,3,4,4,5,5,6,6,7,7,8,8,9,9,10,10,11,11,13,13,15,15,16,16,17,17,18,18,19,19,20,20,21,21,22,22,23,23,24,24,26,26,27,27,28,28,29,29,30,30,32,32,35,35,39,39,43,43,46,46],"right_children":[2,4,6,8,10,12,14,16,18,20,22,24,-1,26,-1,28,30,32,34,36,38,40,42,44,46,-1,48,50,52,54,56,-1,58,-1,-1,60,-1,-1,-1,62,-1,-1,-1,64,-1,-1,66,-1,-1,-1,-1,-1,-1,-1,-1,-1,-1,-1,-1,-1,-1,-1,-1,-1,-1,-1,-1],"split_conditions":[1.48E2,1.25E2,1.82E2,1.17E2,1.39E2,1.81E2,1.98E2,9.2E1,1.21E2,1.37E2,1.45E2,1.57E2,1.906246E-4,1.96E2,-1.2947292E-3,8.3E1,9.7E1,1.18E2,1.22E2,1.36E2,1.38E2,1.42E2,1.47E2,1.54E2,1.6E2,-6.829276E-4,1.97E2,7.2E1,8.9E1,9.5E1,1E2,6.847024E-4,1.19E2,9.5691235E-4,3.0412673E-4,1.35E2,4.954517E-4,-5.639285E-4,-1.397416E-4,1.41E2,3.9824695E-4,-4.667292E-4,5.421236E-4,1.52E2,-8.78565E-4,3.4307464E-4,1.63E2,2.2093953E-5,-2.08278E-4,2.261049E-4,-2.9418347E-4,9.0441835E-4,1.1915863E-4,-1.596205E-4,-6.2292017E-4,5.8445486E-4,-1.4291704E-5,-2.9173345E-4,2.4433236E-4,-1.7337935E-4,-5.315587E-4,2.6218194E-4,-7.263869E-5,-4.915512E-4,3.4542085E-4,-6.2240736E-4,-2.8596193E-4],"split_indices":[0,0,0,0,0,0,0,0,0,0,0,0,0,0,0,0,0,0,0,0,0,0,0,0,0,0,0,0,0,0,0,0,0,0,0,0,0,0,0,0,0,0,0,0,0,0,0,0,0,0,0,0,0,0,0,0,0,0,0,0,0,0,0,0,0,0,0],"split_type":[0,0,0,0,0,0,0,0,0,0,0,0,0,0,0,0,0,0,0,0,0,0,0,0,0,0,0,0,0,0,0,0,0,0,0,0,0,0,0,0,0,0,0,0,0,0,0,0,0,0,0,0,0,0,0,0,0,0,0,0,0,0,0,0,0,0,0],"sum_hessian":[1.98E2,1.47E2,5.1E1,1.24E2,2.3E1,3.4E1,1.7E1,1.16E2,8E0,1.4E1,9E0,3.3E1,1E0,1.6E1,1E0,9.1E1,2.5E1,4E0,4E0,1.2E1,2E0,6E0,3E0,9E0,2.4E1,1.4E1,2E0,8.2E1,9E0,5E0,2E1,1E0,3E0,1E0,3E0,1.1E1,1E0,1E0,1E0,3E0,3E0,2E0,1E0,6E0,3E0,3E0,2.1E1,1E0,1E0,7.1E1,1.1E1,6E0,3E0,3E0,2E0,3E0,1.7E1,1E0,2E0,1E1,1E0,2E0,1E0,4E0,2E0,3E0,1.8E1],"tree_param":{"num_deleted":"0","num_feature":"9","num_nodes":"67","size_leaf_vector":"1"}},{"base_weights":[-9.633009E-5,1.3216339E-3,-4.4640084E-3,1.7332551E-3,-6.329693E-4,-3.4436092E-3,-8.099204E-4,-4.0467083E-4,1.8601384E-3,-2.8152824E-3,6.1459176E-4,-9.493366E-4,-3.0450677E-3,1.6091764E-3,4.8601925E-3,-8.4300636E-4,-3.989632E-3,5.4074975E-4,1.4568076E-5,3.2239358E-3,-3.471066E-3,2.9549513E-3,8.2361256E-4,2.8615475E-3,5.886799E-3,-4.323741E-4,2.9187303E-4,-6.023482E-4,-2.3781658E-4,-5.0498097E-4,6.467048E-4,5.054921E-5,4.3304116E-4,-8.126721E-4,-2.8212517E-3,2.1352607E-4,6.17173E-4,-3.1151655E-4,1.093188E-4,6.50467E-4,3.2459946E-5,9.0906624E-4,2.8131678E-4,4.7067853E-4,6.2247123E-6,3.1734334E-4,-3.5037516E-4],"categories":[],"categories_nodes":[],"categories_segments":[],"categories_sizes":[],"default_left":[0,0,0,0,0,0,0,0,0,0,0,0,0,0,0,0,0,0,0,0,0,0,0,0,0,0,0,0,0,0,0,0,0,0,0,0,0,0,0,0,0,0,0,0,0,0,0],"id":14,"left_children":[1,3,5,7,9,11,-1,-1,13,15,17,-1,19,21,23,25,27,-1,29,31,33,35,37,39,41,-1,-1,-1,-1,-1,43,-1,-1,-1,45,-1,-1,-1,-1,-1,-1,-1,-1,-1,-1,-1,-1],"loss_changes":[1.2383487E-3,1.2258507E-4,1.5386782E-4,9.92E-5,7.523961E-5,6.7535264E-5,0E0,0E0,8.4785715E-5,1.9798128E-5,5.168665E-5,0E0,1.1534331E-4,1.1914337E-4,1.6210397E-6,7.808786E-5,5.340051E-6,0E0,5.7689183E-5,6.8346853E-6,8.900897E-5,9.756582E-5,8.197847E-5,4.410065E-5,2.3663917E-5,0E0,0E0,0E0,0E0,0E0,3.767414E-5,0E0,0E0,0E0,1.5022553E-4,0E0,0E0,0E0,0E0,0E0,0E0,0E0,0E0,0E0,0E0,0E0,0E0],"parents":[2147483647,0,0,1,1,2,2,3,3,4,4,5,5,8,8,9,9,10,10,12,12,13,13,14,14,15,15,16,16,18,18,19,19,20,20,21,21,22,22,23,23,24,24,30,30,34,34],"right_children":[2,4,6,8,10,12,-1,-1,14,16,18,-1,20,22,24,26,28,-1,30,32,34,36,38,40,42,-1,-1,-1,-1,-1,44,-1,-1,-1,46,-1,-1,-1,-1,-1,-1,-1,-1,-1,-1,-1,-1],"split_conditions":[1.51E2,1.25E2,1.9E2,3E0,1.34E2,1.52E2,-8.099204E-4,-4.0467083E-4,1.17E2,1.29E2,1.35E2,-9.493366E-4,1.54E2,4.4E1,1.21E2,1.27E2,1.3E2,5.4074975E-4,1.36E2,1.53E2,1.57E2,3.7E1,4.8E1,1.18E2,1.22E2,-4.323741E-4,2.9187303E-4,-6.023482E-4,-2.3781658E-4,-5.0498097E-4,1.37E2,5.054921E-5,4.3304116E-4,-8.126721E-4,1.6E2,2.1352607E-4,6.17173E-4,-3.1151655E-4,1.093188E-4,6.50467E-4,3.2459946E-5,9.0906624E-4,2.8131678E-4,4.7067853E-4,6.2247123E-6,3.1734334E-4,-3.5037516E-4],"split_indices":[0,0,0,0,0,0,0,0,0,0,0,0,0,0,0,0,0,0,0,0,0,0,0,0,0,0,0,0,0,0,0,0,0,0,0,0,0,0,0,0,0,0,0,0,0,0,0],"split_type":[0,0,0,0,0,0,0,0,0,0,0,0,0,0,0,0,0,0,0,0,0,0,0,0,0,0,0,0,0,0,0,0,0,0,0,0,0,0,0,0,0,0,0,0,0,0,0],"sum_hessian":[1.98E2,1.5E2,4.8E1,1.24E2,2.6E1,3.9E1,9E0,2E0,1.22E2,9E0,1.7E1,1E0,3.8E1,1.14E2,8E0,4E0,5E0,1E0,1.6E1,2E0,3.6E1,4.1E1,7.3E1,4E0,4E0,2E0,2E0,1E0,4E0,1E0,1.5E1,1E0,1E0,3E0,3.3E1,3.4E1,7E0,4E0,6.9E1,1E0,3E0,1E0,3E0,1E0,1.4E1,3E0,3E1],"tree_param":{"num_deleted":"0","num_feature":"9","num_nodes":"47","size_leaf_vector":"1"}},{"base_weights":[-8.9169145E-5,1.2002597E-3,-4.0608956E-3,1.5767076E-3,-5.870086E-4,-3.229433E-3,-7.918462E-3,1.33203E-3,4.5823255E-3,-2.0051957E-3,1.0945156E-3,-3.454803E-3,3.0053707E-4,-5.651108E-3,-1.1894972E-3,1.7677455E-3,-2.6096404E-4,2.7119815E-3,5.5362047E-3,-1.2842875E-3,-4.460732E-3,2.9512474E-3,-9.185757E-4,-9.0187043E-4,-3.0902377E-3,-7.5280195E-4,-6.3922006E-4,1.2469714E-3,6.4318874E-3,-3.98238E-3,8.1472454E-4,6.179437E-4,3.002584E-4,8.636132E-4,2.6021898E-4,-2.1365534E-3,4.471451E-4,-5.3604395E-4,-1.3306589E-4,1.4855713E-3,3.6791115E-4,-4.3602884E-4,1.330167E-3,3.0627449E-3,-3.4946776E-3,6.1485174E-5,-1.5736818E-4,1.8693502E-4,-2.2959709E-4,8.9676725E-4,1.0202378E-4,-1.5584752E-4,-5.8867934E-4,5.324222E-4,-2.326485E-5,-2.7876944E-4,2.2588075E-4,-1.4585447E-4,-4.7973247E-4,2.4428865E-4,-6.931871E-5,5.147055E-4,-9.1081856E-5,4.802197E-5,4.1138977E-4,-7.5172115E-4,-2.9351117E-4],"categories":[],"categories_nodes":[],"categories_segments":[],"categories_sizes":[],"default_left":[0,0,0,0,0,0,0,0,0,0,0,0,0,0,0,0,0,0,0,0,0,0,0,0,0,0,0,0,0,0,0,0,0,0,0,0,0,0,0,0,0,0,0,0,0,0,0,0,0,0,0,0,0,0,0,0,0,0,0,0,0,0,0,0,0,0,0],"id":15,"left_children":[1,3,5,7,9,11,13,15,17,19,21,23,-1,25,-1,27,29,31,33,35,37,39,41,-1,43,-1,45,47,49,51,53,-1,55,-1,-1,57,-1,-1,-1,59,-1,-1,61,63,65,-1,-1,-1,-1,-1,-1,-1,-1,-1,-1,-1,-1,-1,-1,-1,-1,-1,-1,-1,-1,-1,-1],"loss_changes":[1.0240045E-3,1.025204E-4,1.3159157E-4,8.58221E-5,6.658204E-5,6.939881E-5,4.909467E-6,8.167008E-5,1.0426447E-6,2.082438E-5,5.1301962E-5,5.529466E-5,0E0,6.1035986E-5,0E0,2.1544434E-4,1.0732475E-4,3.995728E-5,2.3003304E-5,7.332394E-5,1.3155295E-6,2.002107E-6,5.99766E-5,0E0,1.1024371E-4,0E0,4.4832273E-6,1.8951637E-4,1.1435588E-4,1.8522267E-5,1.00424324E-4,0E0,3.0488494E-5,0E0,0E0,1.4651199E-5,0E0,0E0,0E0,1.00364105E-5,0E0,0E0,4.7455986E-5,6.1683113E-6,6.346937E-5,0E0,0E0,0E0,0E0,0E0,0E0,0E0,0E0,0E0,0E0,0E0,0E0,0E0,0E0,0E0,0E0,0E0,0E0,0E0,0E0,0E0,0E0],"parents":[2147483647,0,0,1,1,2,2,3,3,4,4,5,5,6,6,7,7,8,8,9,9,10,10,11,11,13,13,15,15,16,16,17,17,18,18,19,19,20,20,21,21,22,22,24,24,26,26,27,27,28,28,29,29,30,30,32,32,35,35,39,39,42,42,43,43,44,44],"right_children":[2,4,6,8,10,12,14,16,18,20,22,24,-1,26,-1,28,30,32,34,36,38,40,42,-1,44,-1,46,48,50,52,54,-1,56,-1,-1,58,-1,-1,-1,60,-1,-1,62,64,66,-1,-1,-1,-1,-1,-1,-1,-1,-1,-1,-1,-1,-1,-1,-1,-1,-1,-1,-1,-1,-1,-1],"split_conditions":[1.51E2,1.25E2,1.92E2,1.17E2,1.39E2,1.91E2,1.98E2,9.2E1,1.21E2,1.37E2,1.45E2,1.52E2,3.0053707E-4,1.96E2,-1.1894972E-3,8.4E1,9.7E1,1.18E2,1.22E2,1.36E2,1.38E2,1.42E2,1.47E2,-9.0187043E-4,1.54E2,-7.5280195E-4,1.97E2,7.2E1,8.9E1,9.5E1,1E2,6.179437E-4,1.19E2,8.636132E-4,2.6021898E-4,1.35E2,4.471451E-4,-5.3604395E-4,-1.3306589E-4,1.41E2,3.6791115E-4,-4.3602884E-4,1.48E2,1.53E2,1.57E2,6.1485174E-5,-1.5736818E-4,1.8693502E-4,-2.2959709E-4,8.9676725E-4,1.0202378E-4,-1.5584752E-4,-5.8867934E-4,5.324222E-4,-2.326485E-5,-2.7876944E-4,2.2588075E-4,-1.4585447E-4,-4.7973247E-4,2.4428865E-4,-6.931871E-5,5.147055E-4,-9.1081856E-5,4.802197E-5,4.1138977E-4,-7.5172115E-4,-2.9351117E-4],"split_indices":[0,0,0,0,0,0,0,0,0,0,0,0,0,0,0,0,0,0,0,0,0,0,0,0,0,0,0,0,0,0,0,0,0,0,0,0,0,0,0,0,0,0,0,0,0,0,0,0,0,0,0,0,0,0,0,0,0,0,0,0,0,0,0,0,0,0,0],"split_type":[0,0,0,0,0,0,0,0,0,0,0,0,0,0,0,0,0,0,0,0,0,0,0,0,0,0,0,0,0,0,0,0,0,0,0,0,0,0,0,0,0,0,0,0,0,0,0,0,0,0,0,0,0,0,0,0,0,0,0,0,0,0,0,0,0,0,0],"sum_hessian":[1.98E2,1.5E2,4.8E1,1.24E2,2.6E1,4.1E1,7E0,1.16E2,8E0,1.4E1,1.2E1,4E1,1E0,6E0,1E0,9.1E1,2.5E1,4E0,4E0,1.2E1,2E0,6E0,6E0,1E0,3.9E1,4E0,2E0,8.3E1,8E0,5E0,2E1,1E0,3E0,1E0,3E0,1.1E1,1E0,1E0,1E0,3E0,3E0,2E0,4E0,2E0,3.7E1,1E0,1E0,7.1E1,1.2E1,5E0,3E0,3E0,2E0,3E0,1.7E1,1E0,2E0,1E1,1E0,2E0,1E0,1E0,3E0,1E0,1E0,3E0,3.4E1],"tree_param":{"num_deleted":"0","num_feature":"9","num_nodes":"67","size_leaf_vector":"1"}},{"base_weights":[-8.593642E-5,1.0940993E-3,-3.7206193E-3,1.4383233E-3,-5.400523E-4,-2.8224266E-3,-6.9413274E-3,-3.9015312E-4,1.55687E-3,-2.500555E-3,5.791187E-4,-8.5677655E-4,-2.455424E-3,-5.201426E-3,-1.1300221E-3,1.2788713E-3,3.8107908E-3,-6.701291E-4,-3.6091506E-3,5.210042E-4,2.3841858E-7,2.9096107E-3,-2.824064E-3,-6.427292E-4,-6.072621E-4,1.4934611E-3,-1.1162997E-3,2.611508E-3,5.207342E-3,-3.938258E-4,2.821376E-4,-5.649388E-4,-2.0712256E-3,-2.6664496E-3,1.0258693E-3,4.5621397E-5,3.908202E-4,-6.953411E-4,-2.2551978E-3,5.8411064E-5,-1.4950037E-4,3.7353337E-4,1.18083044E-4,5.6465174E-4,9.3771734E-5,8.204326E-4,2.4070144E-4,-7.8949335E-5,-2.6625497E-4,-2.0639103E-5,-4.2376915E-4,2.7336777E-4,-8.284918E-5,3.1555744E-4,-2.8806136E-4],"categories":[],"categories_nodes":[],"categories_segments":[],"categories_sizes":[],"default_left":[0,0,0,0,0,0,0,0,0,0,0,0,0,0,0,0,0,0,0,0,0,0,0,0,0,0,0,0,0,0,0,0,0,0,0,0,0,0,0,0,0,0,0,0,0,0,0,0,0,0,0,0,0,0,0],"id":16,"left_children":[1,3,5,7,9,11,13,-1,15,17,19,-1,21,23,-1,25,27,29,31,-1,33,35,37,-1,39,41,-1,43,45,-1,-1,-1,47,49,51,-1,-1,-1,53,-1,-1,-1,-1,-1,-1,-1,-1,-1,-1,-1,-1,-1,-1,-1,-1],"loss_changes":[8.575928E-4,8.571643E-5,1.2215658E-4,8.52019E-5,6.0689832E-5,6.33047E-5,1.7063227E-5,0E0,7.219668E-5,1.7873434E-5,4.825226E-5,0E0,8.534982E-5,4.6783403E-5,0E0,3.1302997E-4,8.17416E-6,6.816474E-5,7.125236E-6,0E0,4.9231072E-5,5.5668443E-6,7.123337E-5,0E0,4.0461414E-6,7.26858E-5,0E0,4.0424886E-5,2.2214765E-5,0E0,0E0,0E0,1.6875292E-6,1.8452112E-5,4.3434444E-5,0E0,0E0,0E0,1.241454E-4,0E0,0E0,0E0,0E0,0E0,0E0,0E0,0E0,0E0,0E0,0E0,0E0,0E0,0E0,0E0,0E0],"parents":[2147483647,0,0,1,1,2,2,3,3,4,4,5,5,6,6,8,8,9,9,10,10,12,12,13,13,15,15,16,16,17,17,18,18,20,20,21,21,22,22,24,24,25,25,27,27,28,28,32,32,33,33,34,34,38,38],"right_children":[2,4,6,8,10,12,14,-1,16,18,20,-1,22,24,-1,26,28,30,32,-1,34,36,38,-1,40,42,-1,44,46,-1,-1,-1,48,50,52,-1,-1,-1,54,-1,-1,-1,-1,-1,-1,-1,-1,-1,-1,-1,-1,-1,-1,-1,-1],"split_conditions":[1.51E2,1.25E2,1.9E2,3E0,1.34E2,1.52E2,1.98E2,-3.9015312E-4,1.13E2,1.29E2,1.35E2,-8.5677655E-4,1.54E2,1.96E2,-1.1300221E-3,1.12E2,1.21E2,1.27E2,1.3E2,5.210042E-4,1.39E2,1.53E2,1.57E2,-6.427292E-4,1.97E2,1.5E1,-1.1162997E-3,1.15E2,1.22E2,-3.938258E-4,2.821376E-4,-5.649388E-4,1.32E2,1.37E2,1.45E2,4.5621397E-5,3.908202E-4,-6.953411E-4,1.6E2,5.8411064E-5,-1.4950037E-4,3.7353337E-4,1.18083044E-4,5.6465174E-4,9.3771734E-5,8.204326E-4,2.4070144E-4,-7.8949335E-5,-2.6625497E-4,-2.0639103E-5,-4.2376915E-4,2.7336777E-4,-8.284918E-5,3.1555744E-4,-2.8806136E-4],"split_indices":[0,0,0,0,0,0,0,0,0,0,0,0,0,0,0,0,0,0,0,0,0,0,0,0,0,0,0,0,0,0,0,0,0,0,0,0,0,0,0,0,0,0,0,0,0,0,0,0,0,0,0,0,0,0,0],"split_type":[0,0,0,0,0,0,0,0,0,0,0,0,0,0,0,0,0,0,0,0,0,0,0,0,0,0,0,0,0,0,0,0,0,0,0,0,0,0,0,0,0,0,0,0,0,0,0,0,0,0,0,0,0,0,0],"sum_hessian":[1.98E2,1.5E2,4.8E1,1.24E2,2.6E1,3.9E1,9E0,2E0,1.22E2,9E0,1.7E1,1E0,3.8E1,8E0,1E0,1.1E2,1.2E1,4E0,5E0,1E0,1.6E1,2E0,3.6E1,6E0,2E0,1.09E2,1E0,8E0,4E0,2E0,2E0,1E0,4E0,4E0,1.2E1,1E0,1E0,3E0,3.3E1,1E0,1E0,1.2E1,9.7E1,2E0,6E0,1E0,3E0,2E0,2E0,2E0,2E0,6E0,6E0,3E0,3E1],"tree_param":{"num_deleted":"0","num_feature":"9","num_nodes":"55","size_leaf_vector":"1"}},{"base_weights":[-9.242494E-5,9.843614E-4,-3.4087987E-3,1.3001327E-3,-5.1400065E-4,-2.6612382E-3,-6.9073923E-3,-3.0511022E-3,1.4321393E-3,-2.3526817E-3,5.360444E-4,-2.881096E-3,3.1764657E-4,-4.8269588E-3,-1.0735214E-3,-4.2660983E-4,-1.2240709E-4,9.5736835E-4,1.2857325E-3,-6.254494E-4,-3.3999283E-3,4.94954E-4,-1.4722347E-5,-8.139372E-4,-2.5461547E-3,-7.1885064E-4,-1.2586713E-4,-7.7895226E-4,1.4262723E-3,-3.6756994E-4,2.6332837E-4,-5.3669215E-4,-1.9331456E-3,-4.5471342E-4,5.5274926E-4,2.7641256E-3,-2.8983832E-3,9.4465166E-4,1.2794929E-4,-7.368624E-5,-2.485047E-4,4.2582006E-4,2.1839141E-6,4.3340027E-5,3.7127882E-4,-6.4319E-4,-2.4117417E-4],"categories":[],"categories_nodes":[],"categories_segments":[],"categories_sizes":[],"default_left":[0,0,0,0,0,0,0,0,0,0,0,0,0,0,0,0,0,0,0,0,0,0,0,0,0,0,0,0,0,0,0,0,0,0,0,0,0,0,0,0,0,0,0,0,0,0,0],"id":17,"left_children":[1,3,5,7,9,11,13,15,17,19,21,23,-1,25,-1,-1,-1,-1,27,29,31,-1,33,-1,35,-1,-1,-1,37,-1,-1,-1,39,-1,41,43,45,-1,-1,-1,-1,-1,-1,-1,-1,-1,-1],"loss_changes":[7.1398966E-4,7.2112365E-5,1.09772955E-4,7.6168595E-5,5.338999E-5,6.30572E-5,1.1889817E-5,3.6573365E-6,1.3311207E-4,1.5961909E-5,4.3827393E-5,5.1485666E-5,0E0,4.9938797E-5,0E0,0E0,0E0,0E0,1.6543758E-4,5.9378905E-5,6.935872E-6,0E0,4.623768E-5,0E0,8.2828774E-5,0E0,0E0,0E0,1.2917812E-4,0E0,0E0,0E0,1.4700126E-6,0E0,3.138319E-5,5.0240924E-6,4.9831026E-5,0E0,0E0,0E0,0E0,0E0,0E0,0E0,0E0,0E0,0E0],"parents":[2147483647,0,0,1,1,2,2,3,3,4,4,5,5,6,6,7,7,8,8,9,9,10,10,11,11,13,13,18,18,19,19,20,20,22,22,24,24,28,28,32,32,34,34,35,35,36,36],"right_children":[2,4,6,8,10,12,14,16,18,20,22,24,-1,26,-1,-1,-1,-1,28,30,32,-1,34,-1,36,-1,-1,-1,38,-1,-1,-1,40,-1,42,44,46,-1,-1,-1,-1,-1,-1,-1,-1,-1,-1],"split_conditions":[1.51E2,1.25E2,1.92E2,4E0,1.34E2,1.91E2,1.98E2,2E0,5E0,1.29E2,1.35E2,1.52E2,3.1764657E-4,1.95E2,-1.0735214E-3,-4.2660983E-4,-1.2240709E-4,9.5736835E-4,6E0,1.27E2,1.3E2,4.94954E-4,1.36E2,-8.139372E-4,1.54E2,-7.1885064E-4,-1.2586713E-4,-7.7895226E-4,7E0,-3.6756994E-4,2.6332837E-4,-5.3669215E-4,1.32E2,-4.5471342E-4,1.37E2,1.53E2,1.57E2,9.4465166E-4,1.2794929E-4,-7.368624E-5,-2.485047E-4,4.2582006E-4,2.1839141E-6,4.3340027E-5,3.7127882E-4,-6.4319E-4,-2.4117417E-4],"split_indices":[0,0,0,0,0,0,0,0,0,0,0,0,0,0,0,0,0,0,0,0,0,0,0,0,0,0,0,0,0,0,0,0,0,0,0,0,0,0,0,0,0,0,0,0,0,0,0],"split_type":[0,0,0,0,0,0,0,0,0,0,0,0,0,0,0,0,0,0,0,0,0,0,0,0,0,0,0,0,0,0,0,0,0,0,0,0,0,0,0,0,0,0,0,0,0,0,0],"sum_hessian":[1.98E2,1.5E2,4.8E1,1.24E2,2.6E1,4.1E1,7E0,3E0,1.21E2,9E0,1.7E1,4E1,1E0,6E0,1E0,1E0,2E0,1E0,1.2E2,4E0,5E0,1E0,1.6E1,1E0,3.9E1,3E0,3E0,1E0,1.19E2,2E0,2E0,1E0,4E0,1E0,1.5E1,2E0,3.7E1,1E0,1.18E2,2E0,2E0,1E0,1.4E1,1E0,1E0,3E0,3.4E1],"tree_param":{"num_deleted":"0","num_feature":"9","num_nodes":"47","size_leaf_vector":"1"}},{"base_weights":[-9.663246E-5,8.8730396E-4,-3.126791E-3,1.1757428E-3,-4.809245E-4,-1.9303011E-3,-5.0801733E-3,9.496008E-4,3.9849515E-4,-2.2137254E-3,5.0846074E-4,-7.7324064E-4,-1.4937039E-3,-4.1791885E-3,-1.019846E-3,1.3391919E-3,-4.654756E-4,-5.8375E-4,-3.203084E-3,4.7020614E-4,-1.4813508E-5,2.6259224E-3,-1.8683651E-3,-7.469267E-4,-2.9406527E-3,8.273771E-4,5.453336E-3,-3.3318438E-3,7.6591497E-4,-3.430645E-4,2.457728E-4,-4.4899978E-4,-1.4371276E-3,-2.4837733E-3,9.3592587E-4,4.11734E-5,3.5271497E-4,-5.9495046E-4,-1.1686373E-3,-1.2689333E-4,-4.489753E-3,1.4183535E-4,-2.7874287E-4,7.356644E-4,7.5921416E-5,-3.9132484E-4,-1.0584196E-4,1.1068418E-3,-4.213585E-5,6.0482325E-5,-2.3193855E-4,-1.8298626E-5,-3.956636E-4,2.4974902E-4,-7.5934186E-5,3.0997844E-4,-1.8601613E-4,1.3119182E-4,-1.1742786E-4,-5.958443E-4,-1.1642799E-4],"categories":[],"categories_nodes":[],"categories_segments":[],"categories_sizes":[],"default_left":[0,0,0,0,0,0,0,0,0,0,0,0,0,0,0,0,0,0,0,0,0,0,0,0,0,0,0,0,0,0,0,0,0,0,0,0,0,0,0,0,0,0,0,0,0,0,0,0,0,0,0,0,0,0,0,0,0,0,0,0,0],"id":18,"left_children":[1,3,5,7,9,11,13,15,-1,17,19,-1,21,23,-1,25,27,29,31,-1,33,35,37,-1,39,41,43,45,47,-1,-1,-1,49,51,53,-1,-1,-1,55,57,59,-1,-1,-1,-1,-1,-1,-1,-1,-1,-1,-1,-1,-1,-1,-1,-1,-1,-1,-1,-1],"loss_changes":[5.960896E-4,6.015764E-5,1.047166E-4,7.562591E-5,4.74146E-5,6.9511916E-5,4.0385698E-5,6.5125605E-5,0E0,1.42565E-5,3.956891E-5,0E0,5.2753574E-5,4.7308422E-5,0E0,1.8921062E-4,9.432199E-5,5.1725427E-5,7.183102E-6,0E0,4.2229363E-5,4.534215E-6,7.586212E-5,0E0,6.045342E-5,1.8126349E-4,8.375832E-5,6.432376E-6,2.3706967E-4,0E0,0E0,0E0,8.6089285E-6,1.6219703E-5,3.631095E-5,0E0,0E0,0E0,8.25107E-5,1.0582497E-5,3.7019505E-5,0E0,0E0,0E0,0E0,0E0,0E0,0E0,0E0,0E0,0E0,0E0,0E0,0E0,0E0,0E0,0E0,0E0,0E0,0E0,0E0],"parents":[2147483647,0,0,1,1,2,2,3,3,4,4,5,5,6,6,7,7,9,9,10,10,12,12,13,13,15,15,16,16,17,17,18,18,20,20,21,21,22,22,24,24,25,25,26,26,27,27,28,28,32,32,33,33,34,34,38,38,39,39,40,40],"right_children":[2,4,6,8,10,12,14,16,-1,18,20,-1,22,24,-1,26,28,30,32,-1,34,36,38,-1,40,42,44,46,48,-1,-1,-1,50,52,54,-1,-1,-1,56,58,60,-1,-1,-1,-1,-1,-1,-1,-1,-1,-1,-1,-1,-1,-1,-1,-1,-1,-1,-1,-1],"split_conditions":[1.51E2,1.25E2,1.82E2,1.17E2,1.34E2,1.52E2,1.98E2,9.2E1,3.9849515E-4,1.29E2,1.35E2,-7.7324064E-4,1.54E2,1.85E2,-1.019846E-3,8.3E1,9.9E1,1.27E2,1.31E2,4.7020614E-4,1.39E2,1.53E2,1.57E2,-7.469267E-4,1.9E2,7.2E1,8.9E1,9.7E1,1E2,-3.430645E-4,2.457728E-4,-4.4899978E-4,1.32E2,1.37E2,1.45E2,4.11734E-5,3.5271497E-4,-5.9495046E-4,1.6E2,1.87E2,1.95E2,1.4183535E-4,-2.7874287E-4,7.356644E-4,7.5921416E-5,-3.9132484E-4,-1.0584196E-4,1.1068418E-3,-4.213585E-5,6.0482325E-5,-2.3193855E-4,-1.8298626E-5,-3.956636E-4,2.4974902E-4,-7.5934186E-5,3.0997844E-4,-1.8601613E-4,1.3119182E-4,-1.1742786E-4,-5.958443E-4,-1.1642799E-4],"split_indices":[0,0,0,0,0,0,0,0,0,0,0,0,0,0,0,0,0,0,0,0,0,0,0,0,0,0,0,0,0,0,0,0,0,0,0,0,0,0,0,0,0,0,0,0,0,0,0,0,0,0,0,0,0,0,0,0,0,0,0,0,0],"split_type":[0,0,0,0,0,0,0,0,0,0,0,0,0,0,0,0,0,0,0,0,0,0,0,0,0,0,0,0,0,0,0,0,0,0,0,0,0,0,0,0,0,0,0,0,0,0,0,0,0,0,0,0,0,0,0,0,0,0,0,0,0],"sum_hessian":[1.98E2,1.5E2,4.8E1,1.24E2,2.6E1,3.1E1,1.7E1,1.16E2,8E0,9E0,1.7E1,1E0,3E1,1.6E1,1E0,9.1E1,2.5E1,4E0,5E0,1E0,1.6E1,2E0,2.8E1,3E0,1.3E1,8.2E1,9E0,7E0,1.8E1,2E0,2E0,2E0,3E0,4E0,1.2E1,1E0,1E0,3E0,2.5E1,5E0,8E0,7.1E1,1.1E1,6E0,3E0,5E0,2E0,1E0,1.7E1,1E0,2E0,2E0,2E0,6E0,6E0,3E0,2.2E1,2E0,3E0,5E0,3E0],"tree_param":{"num_deleted":"0","num_feature":"9","num_nodes":"61","size_leaf_vector":"1"}},{"base_weights":[-9.783219E-5,8.062138E-4,-2.8817733E-3,-2.98962E-3,9.0335653E-4,-1.7638374E-3,-4.709116E-3,-3.5529834E-4,-6.497651E-5,9.024084E-4,7.8672514E-4,-7.3457806E-4,-1.3468141E-3,-3.8462947E-3,-9.688541E-4,-7.4709655E-4,8.9445565E-4,2.4946232E-3,-1.6977623E-3,-6.909065E-4,-2.6964822E-3,8.90328E-4,7.778205E-4,3.911406E-5,3.3507944E-4,-5.503297E-4,-1.0469968E-3,-1.1191269E-4,-4.1199196E-3,-7.04517E-4,9.3649986E-5,2.8673038E-4,-1.6822232E-4,-1.1928752E-4,1.366675E-4,-5.1190215E-4,-4.1537485E-5],"categories":[],"categories_nodes":[],"categories_segments":[],"categories_sizes":[],"default_left":[0,0,0,0,0,0,0,0,0,0,0,0,0,0,0,0,0,0,0,0,0,0,0,0,0,0,0,0,0,0,0,0,0,0,0,0,0],"id":19,"left_children":[1,3,5,7,9,11,13,-1,-1,-1,15,-1,17,19,-1,-1,21,23,25,-1,27,-1,29,-1,-1,-1,31,33,35,-1,-1,-1,-1,-1,-1,-1,-1],"loss_changes":[5.031687E-4,5.8380065E-5,9.1793685E-5,2.9641487E-6,1.3307597E-4,6.459622E-5,4.0069397E-5,0E0,0E0,0E0,1.3745442E-4,0E0,4.602779E-5,4.1237217E-5,0E0,0E0,1.2945503E-4,4.0921896E-6,6.605686E-5,0E0,5.104453E-5,0E0,1.8659311E-4,0E0,0E0,0E0,6.9471585E-5,1.1220059E-5,3.1184652E-5,0E0,0E0,0E0,0E0,0E0,0E0,0E0,0E0],"parents":[2147483647,0,0,1,1,2,2,3,3,4,4,5,5,6,6,10,10,12,12,13,13,16,16,17,17,18,18,20,20,22,22,26,26,27,27,28,28],"right_children":[2,4,6,8,10,12,14,-1,-1,-1,16,-1,18,20,-1,-1,22,24,26,-1,28,-1,30,-1,-1,-1,32,34,36,-1,-1,-1,-1,-1,-1,-1,-1],"split_conditions":[1.51E2,4E0,1.82E2,3E0,5E0,1.52E2,1.98E2,-3.5529834E-4,-6.497651E-5,9.024084E-4,6E0,-7.3457806E-4,1.54E2,1.85E2,-9.688541E-4,-7.4709655E-4,7E0,1.53E2,1.57E2,-6.909065E-4,1.9E2,8.90328E-4,9E0,3.911406E-5,3.3507944E-4,-5.503297E-4,1.6E2,1.88E2,1.96E2,-7.04517E-4,9.3649986E-5,2.8673038E-4,-1.6822232E-4,-1.1928752E-4,1.366675E-4,-5.1190215E-4,-4.1537485E-5],"split_indices":[0,0,0,0,0,0,0,0,0,0,0,0,0,0,0,0,0,0,0,0,0,0,0,0,0,0,0,0,0,0,0,0,0,0,0,0,0],"split_type":[0,0,0,0,0,0,0,0,0,0,0,0,0,0,0,0,0,0,0,0,0,0,0,0,0,0,0,0,0,0,0,0,0,0,0,0,0],"sum_hessian":[1.98E2,1.5E2,4.8E1,3E0,1.47E2,3.1E1,1.7E1,2E0,1E0,1E0,1.46E2,1E0,3E1,1.6E1,1E0,1E0,1.45E2,2E0,2.8E1,3E0,1.3E1,1E0,1.44E2,1E0,1E0,3E0,2.5E1,5E0,8E0,2E0,1.42E2,3E0,2.2E1,3E0,2E0,6E0,2E0],"tree_param":{"num_deleted":"0","num_feature":"9","num_nodes":"37","size_leaf_vector":"1"}},{"base_weights":[-1.029814E-4,7.6190324E-4,-2.5625958E-3,-2.795726E-3,8.547902E-4,-1.9524388E-3,-5.674403E-3,-3.946051E-4,-1.0969341E-4,8.5728767E-4,7.416585E-4,-2.1591545E-3,3.5715252E-4,-3.8552838E-3,-9.2041196E-4,-7.097423E-4,8.461096E-4,-1.8819078E-3,-7.0403813E-4,-5.818546E-4,-9.282008E-5,8.4581226E-4,7.3293963E-4,-2.0670418E-3,1.2755593E-3,-6.5754855E-4,8.843134E-5,-1.17961165E-4,-3.2504956E-4,2.1754057E-4,-2.6206673E-5],"categories":[],"categories_nodes":[],"categories_segments":[],"categories_sizes":[],"default_left":[0,0,0,0,0,0,0,0,0,0,0,0,0,0,0,0,0,0,0,0,0,0,0,0,0,0,0,0,0,0,0],"id":20,"left_children":[1,3,5,7,9,11,13,-1,-1,-1,15,17,-1,19,-1,-1,21,23,-1,-1,-1,-1,25,27,29,-1,-1,-1,-1,-1,-1],"loss_changes":[4.2528167E-4,5.1297473E-5,8.7652996E-5,3.488094E-6,1.2025006E-4,5.909652E-5,1.5883299E-5,0E0,0E0,0E0,1.2391248E-4,4.6296045E-5,0E0,3.4825636E-5,0E0,0E0,1.1698824E-4,2.7772476E-5,0E0,0E0,0E0,0E0,1.6290997E-4,3.922521E-5,4.7209833E-6,0E0,0E0,0E0,0E0,0E0,0E0],"parents":[2147483647,0,0,1,1,2,2,3,3,4,4,5,5,6,6,10,10,11,11,13,13,16,16,17,17,22,22,23,23,24,24],"right_children":[2,4,6,8,10,12,14,-1,-1,-1,16,18,-1,20,-1,-1,22,24,-1,-1,-1,-1,26,28,30,-1,-1,-1,-1,-1,-1],"split_conditions":[1.48E2,4E0,1.92E2,2E0,5E0,1.91E2,1.98E2,-3.946051E-4,-1.0969341E-4,8.5728767E-4,6E0,1.9E2,3.5715252E-4,1.95E2,-9.2041196E-4,-7.097423E-4,7E0,1.88E2,-7.0403813E-4,-5.818546E-4,-9.282008E-5,8.4581226E-4,9E0,1.72E2,1.89E2,-6.5754855E-4,8.843134E-5,-1.17961165E-4,-3.2504956E-4,2.1754057E-4,-2.6206673E-5],"split_indices":[0,0,0,0,0,0,0,0,0,0,0,0,0,0,0,0,0,0,0,0,0,0,0,0,0,0,0,0,0,0,0],"split_type":[0,0,0,0,0,0,0,0,0,0,0,0,0,0,0,0,0,0,0,0,0,0,0,0,0,0,0,0,0,0,0],"sum_hessian":[1.98E2,1.47E2,5.1E1,3E0,1.44E2,4.4E1,7E0,1E0,2E0,1E0,1.43E2,4.3E1,1E0,6E0,1E0,1E0,1.42E2,4.2E1,1E0,3E0,3E0,1E0,1.41E2,4E1,2E0,2E0,1.39E2,2.4E1,1.6E1,1E0,1E0],"tree_param":{"num_deleted":"0","num_feature":"9","num_nodes":"31","size_leaf_vector":"1"}},{"base_weights":[-1.0410295E-4,4.3457712E-4,-3.4094197E-3,9.1894314E-4,-8.3584647E-4,-2.8879973E-3,-8.7439123E-4,6.663844E-4,3.0435736E-3,-1.3429184E-3,3.7935555E-3,-3.0799424E-3,-3.2578906E-4,8.6409814E-4,-1.0738776E-3,5.091498E-4,2.2083602E-3,-1.0217748E-3,-4.2989105E-3,6.1471015E-4,1.6683936E-3,-2.52443E-3,-4.797107E-3,7.4324016E-5,-1.2319237E-4,7.416576E-4,7.2274957E-4,-2.3094018E-4,3.4689074E-3,-1.2322456E-3,3.698528E-4,-5.552372E-4,-2.6926398E-5,-1.5552938E-3,5.669728E-4,-2.9899464E-3,3.39295E-4,-5.3821504E-4,-1.2284667E-4,1.0709105E-4,-8.0998834E-5,1.9119978E-4,4.332036E-4,-8.84095E-5,-3.4924806E-4,-2.028197E-4,-3.0474364E-5,-2.4432744E-4,-6.6883565E-4],"categories":[],"categories_nodes":[],"categories_segments":[],"categories_sizes":[],"default_left":[0,0,0,0,0,0,0,0,0,0,0,0,0,0,0,0,0,0,0,0,0,0,0,0,0,0,0,0,0,0,0,0,0,0,0,0,0,0,0,0,0,0,0,0,0,0,0,0,0],"id":21,"left_children":[1,3,5,7,9,11,-1,13,15,17,19,21,23,25,-1,-1,27,29,31,-1,33,35,37,-1,-1,39,-1,-1,41,43,-1,-1,-1,45,-1,47,-1,-1,-1,-1,-1,-1,-1,-1,-1,-1,-1,-1,-1],"loss_changes":[3.5580283E-4,1.06608306E-4,5.2630232E-5,6.5046064E-5,1.1777153E-4,1.2275268E-5,0E0,2.6408944E-4,1.0992037E-5,3.7376594E-5,1.475255E-5,1.173772E-5,3.821668E-6,8.190307E-5,0E0,0E0,7.065448E-5,4.5290413E-5,1.8708954E-5,0E0,6.041429E-5,6.799212E-5,3.8272556E-6,0E0,0E0,5.7575526E-5,0E0,0E0,3.811474E-6,2.8388393E-5,0E0,0E0,0E0,1.1560869E-6,0E0,2.4094858E-5,0E0,0E0,0E0,0E0,0E0,0E0,0E0,0E0,0E0,0E0,0E0,0E0,0E0],"parents":[2147483647,0,0,1,1,2,2,3,3,4,4,5,5,7,7,8,8,9,9,10,10,11,11,12,12,13,13,16,16,17,17,18,18,20,20,21,21,22,22,25,25,28,28,29,29,33,33,35,35],"right_children":[2,4,6,8,10,12,-1,14,16,18,20,22,24,26,-1,-1,28,30,32,-1,34,36,38,-1,-1,40,-1,-1,42,44,-1,-1,-1,46,-1,48,-1,-1,-1,-1,-1,-1,-1,-1,-1,-1,-1,-1,-1],"split_conditions":[1.72E2,1.25E2,1.98E2,1.13E2,1.68E2,1.96E2,-8.7439123E-4,1.12E2,1.15E2,1.65E2,1.69E2,1.92E2,1.97E2,1.11E2,-1.0738776E-3,5.091498E-4,1.17E2,1.64E2,1.67E2,6.1471015E-4,1.71E2,1.91E2,1.95E2,7.4324016E-5,-1.2319237E-4,9.2E1,7.2274957E-4,-2.3094018E-4,1.21E2,1.6E2,3.698528E-4,-5.552372E-4,-2.6926398E-5,1.7E2,5.669728E-4,1.9E2,3.39295E-4,-5.3821504E-4,-1.2284667E-4,1.0709105E-4,-8.0998834E-5,1.9119978E-4,4.332036E-4,-8.84095E-5,-3.4924806E-4,-2.028197E-4,-3.0474364E-5,-2.4432744E-4,-6.6883565E-4],"split_indices":[0,0,0,0,0,0,0,0,0,0,0,0,0,0,0,0,0,0,0,0,0,0,0,0,0,0,0,0,0,0,0,0,0,0,0,0,0,0,0,0,0,0,0,0,0,0,0,0,0],"split_type":[0,0,0,0,0,0,0,0,0,0,0,0,0,0,0,0,0,0,0,0,0,0,0,0,0,0,0,0,0,0,0,0,0,0,0,0,0,0,0,0,0,0,0,0,0,0,0,0,0],"sum_hessian":[1.98E2,1.71E2,2.7E1,1.24E2,4.7E1,2.6E1,1E0,1.12E2,1.2E1,4.3E1,4E0,2.4E1,2E0,1.11E2,1E0,2E0,1E1,4E1,3E0,1E0,3E0,2E1,4E0,1E0,1E0,1.1E2,1E0,2E0,8E0,3.9E1,1E0,2E0,1E0,2E0,1E0,1.9E1,1E0,3E0,1E0,9.1E1,1.9E1,4E0,4E0,3.5E1,4E0,1E0,1E0,1.8E1,1E0],"tree_param":{"num_deleted":"0","num_feature":"9","num_nodes":"49","size_leaf_vector":"1"}},{"base_weights":[-1.0012846E-4,3.9622205E-4,-3.1455627E-3,8.316779E-4,-7.460322E-4,-2.646753E-3,-8.306712E-4,5.9687934E-4,2.8086442E-3,-1.223386E-3,3.6038875E-3,-2.8213537E-3,-3.0949712E-4,7.843844E-4,-1.0201841E-3,4.7520697E-4,2.0232878E-3,-9.212385E-4,-4.0145516E-3,5.8397505E-4,1.5849844E-3,-2.2993216E-3,-4.449618E-3,7.060766E-5,-1.1703223E-4,6.6773687E-4,6.8661274E-4,-2.155443E-3,3.1913882E-3,-1.1737897E-3,2.6690066E-3,-5.1822065E-4,-2.5579333E-5,-1.4775196E-3,5.386248E-4,-2.7366176E-3,3.2233002E-4,-4.9785007E-4,-1.167044E-4,1.4965182E-4,1.2164694E-5,-5.1684678E-5,-2.7163178E-4,5.373731E-4,2.246879E-4,-7.981277E-5,-4.2613E-4,4.8990547E-5,3.5136045E-4,-1.9267798E-4,-2.8949977E-5,-2.2118138E-4,-6.353945E-4],"categories":[],"categories_nodes":[],"categories_segments":[],"categories_sizes":[],"default_left":[0,0,0,0,0,0,0,0,0,0,0,0,0,0,0,0,0,0,0,0,0,0,0,0,0,0,0,0,0,0,0,0,0,0,0,0,0,0,0,0,0,0,0,0,0,0,0,0,0,0,0,0,0],"id":22,"left_children":[1,3,5,7,9,11,-1,13,15,17,19,21,23,25,-1,-1,27,29,31,-1,33,35,37,-1,-1,39,-1,41,43,45,47,-1,-1,49,-1,51,-1,-1,-1,-1,-1,-1,-1,-1,-1,-1,-1,-1,-1,-1,-1,-1,-1],"loss_changes":[3.0205533E-4,8.617349E-5,5.0098257E-5,5.63472E-5,1.0407859E-4,1.014513E-5,0E0,2.368062E-4,1.0226853E-5,3.3408767E-5,1.3314035E-5,1.10190595E-5,3.4490315E-6,7.487028E-5,0E0,0E0,6.0571816E-5,4.03084E-5,1.6230159E-5,0E0,5.452383E-5,5.9536374E-5,2.8703507E-6,0E0,0E0,5.005535E-5,0E0,1.3532217E-6,6.4770575E-6,4.183348E-5,3.800058E-6,0E0,0E0,1.0433878E-6,0E0,2.3913977E-5,0E0,0E0,0E0,0E0,0E0,0E0,0E0,0E0,0E0,0E0,0E0,0E0,0E0,0E0,0E0,0E0,0E0],"parents":[2147483647,0,0,1,1,2,2,3,3,4,4,5,5,7,7,8,8,9,9,10,10,11,11,12,12,13,13,16,16,17,17,18,18,20,20,21,21,22,22,25,25,27,27,28,28,29,29,30,30,33,33,35,35],"right_children":[2,4,6,8,10,12,-1,14,16,18,20,22,24,26,-1,-1,28,30,32,-1,34,36,38,-1,-1,40,-1,42,44,46,48,-1,-1,50,-1,52,-1,-1,-1,-1,-1,-1,-1,-1,-1,-1,-1,-1,-1,-1,-1,-1,-1],"split_conditions":[1.72E2,1.25E2,1.98E2,1.13E2,1.68E2,1.96E2,-8.306712E-4,1.12E2,1.15E2,1.65E2,1.69E2,1.92E2,1.97E2,1.11E2,-1.0201841E-3,4.7520697E-4,1.17E2,1.63E2,1.67E2,5.8397505E-4,1.71E2,1.91E2,1.95E2,7.060766E-5,-1.1703223E-4,4.4E1,6.8661274E-4,1.16E2,1.18E2,1.6E2,1.64E2,-5.1822065E-4,-2.5579333E-5,1.7E2,5.386248E-4,1.9E2,3.2233002E-4,-4.9785007E-4,-1.167044E-4,1.4965182E-4,1.2164694E-5,-5.1684678E-5,-2.7163178E-4,5.373731E-4,2.246879E-4,-7.981277E-5,-4.2613E-4,4.8990547E-5,3.5136045E-4,-1.9267798E-4,-2.8949977E-5,-2.2118138E-4,-6.353945E-4],"split_indices":[0,0,0,0,0,0,0,0,0,0,0,0,0,0,0,0,0,0,0,0,0,0,0,0,0,0,0,0,0,0,0,0,0,0,0,0,0,0,0,0,0,0,0,0,0,0,0,0,0,0,0,0,0],"split_type":[0,0,0,0,0,0,0,0,0,0,0,0,0,0,0,0,0,0,0,0,0,0,0,0,0,0,0,0,0,0,0,0,0,0,0,0,0,0,0,0,0,0,0,0,0,0,0,0,0,0,0,0,0],"sum_hessian":[1.98E2,1.71E2,2.7E1,1.24E2,4.7E1,2.6E1,1E0,1.12E2,1.2E1,4.3E1,4E0,2.4E1,2E0,1.11E2,1E0,2E0,1E1,4E1,3E0,1E0,3E0,2E1,4E0,1E0,1E0,1.1E2,1E0,2E0,8E0,3.8E1,2E0,2E0,1E0,2E0,1E0,1.9E1,1E0,3E0,1E0,4.3E1,6.7E1,1E0,1E0,1E0,7E0,3.5E1,3E0,1E0,1E0,1E0,1E0,1.8E1,1E0],"tree_param":{"num_deleted":"0","num_feature":"9","num_nodes":"53","size_leaf_vector":"1"}},{"base_weights":[-9.529615E-5,3.623834E-4,-2.903353E-3,7.5445604E-4,-6.661887E-4,-2.4263384E-3,-7.891372E-4,-2.8347597E-3,8.659512E-4,-1.1158071E-3,3.4236908E-3,-4.9027207E-4,-2.1425267E-3,-3.8771034E-4,-1.19494405E-4,8.015871E-4,7.406141E-4,-8.3169126E-4,-3.7490427E-3,5.547762E-4,1.5057325E-3,1.484553E-3,-2.5066398E-3,-6.870911E-4,8.61301E-4,-1.0693845E-3,2.5355518E-3,-4.836718E-4,-2.4300814E-5,-1.4036497E-4,5.1169394E-4,-7.866323E-6,2.3054928E-4,-6.4726325E-4,-2.0527865E-3,7.906854E-4,7.3565054E-5,-7.205341E-5,-3.9416924E-4,4.6540797E-5,3.3379198E-4,1.316326E-5,-2.8315012E-4],"categories":[],"categories_nodes":[],"categories_segments":[],"categories_sizes":[],"default_left":[0,0,0,0,0,0,0,0,0,0,0,0,0,0,0,0,0,0,0,0,0,0,0,0,0,0,0,0,0,0,0,0,0,0,0,0,0,0,0,0,0,0,0],"id":23,"left_children":[1,3,5,7,9,11,-1,13,15,17,19,-1,21,-1,-1,-1,23,25,27,-1,29,31,33,-1,35,37,39,-1,-1,-1,-1,-1,-1,-1,41,-1,-1,-1,-1,-1,-1,-1,-1],"loss_changes":[2.5680498E-4,6.9865906E-5,4.7474852E-5,5.2477284E-5,9.208666E-5,8.4721105E-6,0E0,2.204084E-6,1.03393664E-4,2.9800289E-5,1.2015949E-5,0E0,3.805857E-5,0E0,0E0,0E0,1.1706994E-4,3.5526697E-5,1.4078349E-5,0E0,4.9207916E-5,4.0312757E-6,2.9912568E-5,0E0,1.0041658E-4,3.6238107E-5,3.4295572E-6,0E0,0E0,0E0,0E0,0E0,0E0,0E0,3.9496605E-5,0E0,0E0,0E0,0E0,0E0,0E0,0E0,0E0],"parents":[2147483647,0,0,1,1,2,2,3,3,4,4,5,5,7,7,8,8,9,9,10,10,12,12,16,16,17,17,18,18,20,20,21,21,22,22,24,24,25,25,26,26,34,34],"right_children":[2,4,6,8,10,12,-1,14,16,18,20,-1,22,-1,-1,-1,24,26,28,-1,30,32,34,-1,36,38,40,-1,-1,-1,-1,-1,-1,-1,42,-1,-1,-1,-1,-1,-1,-1,-1],"split_conditions":[1.72E2,1.25E2,1.98E2,4E0,1.68E2,1.73E2,-7.891372E-4,2E0,5E0,1.65E2,1.69E2,-4.9027207E-4,1.75E2,-3.8771034E-4,-1.19494405E-4,8.015871E-4,6E0,1.63E2,1.67E2,5.547762E-4,1.71E2,1.74E2,1.76E2,-6.870911E-4,7E0,1.6E2,1.64E2,-4.836718E-4,-2.4300814E-5,-1.4036497E-4,5.1169394E-4,-7.866323E-6,2.3054928E-4,-6.4726325E-4,1.82E2,7.906854E-4,7.3565054E-5,-7.205341E-5,-3.9416924E-4,4.6540797E-5,3.3379198E-4,1.316326E-5,-2.8315012E-4],"split_indices":[0,0,0,0,0,0,0,0,0,0,0,0,0,0,0,0,0,0,0,0,0,0,0,0,0,0,0,0,0,0,0,0,0,0,0,0,0,0,0,0,0,0,0],"split_type":[0,0,0,0,0,0,0,0,0,0,0,0,0,0,0,0,0,0,0,0,0,0,0,0,0,0,0,0,0,0,0,0,0,0,0,0,0,0,0,0,0,0,0],"sum_hessian":[1.98E2,1.71E2,2.7E1,1.24E2,4.7E1,2.6E1,1E0,3E0,1.21E2,4.3E1,4E0,1E0,2.5E1,1E0,2E0,1E0,1.2E2,4E1,3E0,1E0,3E0,2E0,2.3E1,1E0,1.19E2,3.8E1,2E0,2E0,1E0,2E0,1E0,1E0,1E0,1E0,2.2E1,1E0,1.18E2,3.5E1,3E0,1E0,1E0,6E0,1.6E1],"tree_param":{"num_deleted":"0","num_feature":"9","num_nodes":"43","size_leaf_vector":"1"}},{"base_weights":[-9.163795E-5,3.3082865E-4,-2.683517E-3,6.827951E-4,-5.9264275E-4,-2.2275879E-3,-7.496804E-4,4.6421995E-4,2.5301944E-3,-1.0177175E-3,3.2665431E-3,-2.3931647E-3,-1.0525187E-4,6.4208836E-4,-9.728521E-4,4.3862365E-4,1.7939833E-3,-7.5061E-4,-3.5011396E-3,5.270377E-4,1.4479905E-3,-1.9201849E-3,-3.9010465E-3,8.123517E-5,-9.702295E-5,5.310073E-4,6.4860436E-4,-2.0967126E-3,2.8915505E-3,-9.279266E-4,3.1710268E-4,-4.514277E-4,-2.308637E-5,-1.3100704E-3,4.8610868E-4,-2.3365647E-3,3.203705E-4,-4.3927506E-4,-9.671152E-5,8.177288E-5,-8.1446175E-5,-5.2778425E-5,-2.6172848E-4,5.0682726E-4,1.9859262E-4,-3.718844E-5,-1.9340133E-4,-1.7602593E-4,-2.0484627E-5,-1.8390495E-4,-5.894676E-4],"categories":[],"categories_nodes":[],"categories_segments":[],"categories_sizes":[],"default_left":[0,0,0,0,0,0,0,0,0,0,0,0,0,0,0,0,0,0,0,0,0,0,0,0,0,0,0,0,0,0,0,0,0,0,0,0,0,0,0,0,0,0,0,0,0,0,0,0,0,0,0],"id":24,"left_children":[1,3,5,7,9,11,-1,13,15,17,19,21,23,25,-1,-1,27,29,31,-1,33,35,37,-1,-1,39,-1,41,43,45,-1,-1,-1,47,-1,49,-1,-1,-1,-1,-1,-1,-1,-1,-1,-1,-1,-1,-1,-1,-1],"loss_changes":[2.1878928E-4,5.630997E-5,4.4746717E-5,4.9299873E-5,8.206564E-5,9.236173E-6,0E0,2.111118E-4,9.8948585E-6,2.6558999E-5,1.0588934E-5,1.0339194E-5,3.1692875E-6,6.9260976E-5,0E0,0E0,5.3036052E-5,3.1452706E-5,1.2210767E-5,0E0,4.4022472E-5,5.2288837E-5,2.9648436E-6,0E0,0E0,4.3487013E-5,0E0,1.06886E-6,7.676419E-6,2.1657834E-5,0E0,0E0,0E0,1.1320963E-6,0E0,2.4563677E-5,0E0,0E0,0E0,0E0,0E0,0E0,0E0,0E0,0E0,0E0,0E0,0E0,0E0,0E0,0E0],"parents":[2147483647,0,0,1,1,2,2,3,3,4,4,5,5,7,7,8,8,9,9,10,10,11,11,12,12,13,13,16,16,17,17,18,18,20,20,21,21,22,22,25,25,27,27,28,28,29,29,33,33,35,35],"right_children":[2,4,6,8,10,12,-1,14,16,18,20,22,24,26,-1,-1,28,30,32,-1,34,36,38,-1,-1,40,-1,42,44,46,-1,-1,-1,48,-1,50,-1,-1,-1,-1,-1,-1,-1,-1,-1,-1,-1,-1,-1,-1,-1],"split_conditions":[1.72E2,1.25E2,1.98E2,1.13E2,1.68E2,1.96E2,-7.496804E-4,1.12E2,1.15E2,1.65E2,1.69E2,1.92E2,1.97E2,1.11E2,-9.728521E-4,4.3862365E-4,1.17E2,1.64E2,1.67E2,5.270377E-4,1.71E2,1.91E2,1.95E2,8.123517E-5,-9.702295E-5,9.2E1,6.4860436E-4,1.16E2,1.18E2,1.51E2,3.1710268E-4,-4.514277E-4,-2.308637E-5,1.7E2,4.8610868E-4,1.9E2,3.203705E-4,-4.3927506E-4,-9.671152E-5,8.177288E-5,-8.1446175E-5,-5.2778425E-5,-2.6172848E-4,5.0682726E-4,1.9859262E-4,-3.718844E-5,-1.9340133E-4,-1.7602593E-4,-2.0484627E-5,-1.8390495E-4,-5.894676E-4],"split_indices":[0,0,0,0,0,0,0,0,0,0,0,0,0,0,0,0,0,0,0,0,0,0,0,0,0,0,0,0,0,0,0,0,0,0,0,0,0,0,0,0,0,0,0,0,0,0,0,0,0,0,0],"split_type":[0,0,0,0,0,0,0,0,0,0,0,0,0,0,0,0,0,0,0,0,0,0,0,0,0,0,0,0,0,0,0,0,0,0,0,0,0,0,0,0,0,0,0,0,0,0,0,0,0,0,0],"sum_hessian":[1.98E2,1.71E2,2.7E1,1.24E2,4.7E1,2.6E1,1E0,1.12E2,1.2E1,4.3E1,4E0,2.4E1,2E0,1.11E2,1E0,2E0,1E1,4E1,3E0,1E0,3E0,2E1,4E0,1E0,1E0,1.1E2,1E0,2E0,8E0,3.9E1,1E0,2E0,1E0,2E0,1E0,1.9E1,1E0,3E0,1E0,9.1E1,1.9E1,1E0,1E0,1E0,7E0,2.6E1,1.3E1,1E0,1E0,1.8E1,1E0],"tree_param":{"num_deleted":"0","num_feature":"9","num_nodes":"51","size_leaf_vector":"1"}},{"base_weights":[-8.659776E-5,3.0317451E-4,-2.4778205E-3,1.202183E-3,-5.814225E-6,-2.0420386E-3,-7.121965E-4,-5.9615076E-4,2.8700596E-3,-1.671272E-3,3.713254E-4,-4.5656264E-4,-1.7693765E-3,1.6712189E-3,-4.77295E-3,8.8211073E-4,1.536347E-3,-4.6218335E-4,-6.1733724E-4,7.4379593E-3,-5.2151114E-5,1.5329322E-3,-2.108441E-3,-1.4711089E-3,5.472609E-3,-6.6366146E-4,5.4536265E-4,-4.7265567E-4,4.608933E-3,-1.3023741E-3,7.7507197E-4,1.99724E-3,1.2212932E-3,-8.952335E-4,1.2637407E-4,1.7225742E-6,2.2821725E-4,-6.057039E-4,-1.6734133E-3,8.564932E-5,-6.411811E-4,3.4237554E-4,8.8828657E-4,5.442545E-4,-4.624501E-4,1.6490628E-4,-8.0947386E-4,4.928027E-4,1.18763746E-4,-4.4768523E-5,-5.7114864E-4,7.1133225E-4,-2.0792287E-4,-2.9986104E-6,3.1032145E-4,2.7797903E-5,-2.3784918E-4],"categories":[],"categories_nodes":[],"categories_segments":[],"categories_sizes":[],"default_left":[0,0,0,0,0,0,0,0,0,0,0,0,0,0,0,0,0,0,0,0,0,0,0,0,0,0,0,0,0,0,0,0,0,0,0,0,0,0,0,0,0,0,0,0,0,0,0,0,0,0,0,0,0,0,0,0,0],"id":25,"left_children":[1,3,5,7,9,11,-1,13,15,17,19,-1,21,23,25,-1,27,29,-1,31,33,35,37,39,41,-1,43,45,47,49,-1,51,-1,-1,53,-1,-1,-1,55,-1,-1,-1,-1,-1,-1,-1,-1,-1,-1,-1,-1,-1,-1,-1,-1,-1,-1],"loss_changes":[1.8622563E-4,4.7785747E-5,4.2124026E-5,1.3368453E-4,8.1646795E-5,1.0500036E-5,0E0,2.1632429E-4,1.689984E-4,1.277893E-4,3.1759855E-4,0E0,3.2344185E-5,1.8722902E-4,8.291179E-5,0E0,1.256351E-4,1.4810244E-4,0E0,1.3148354E-4,1.6161094E-4,3.3675733E-6,3.1090058E-5,1.08991575E-4,1.8497027E-5,0E0,1.0112234E-4,2.235836E-4,2.8810027E-6,6.9043E-5,0E0,9.8212426E-5,0E0,0E0,4.663898E-5,0E0,0E0,0E0,3.2306518E-5,0E0,0E0,0E0,0E0,0E0,0E0,0E0,0E0,0E0,0E0,0E0,0E0,0E0,0E0,0E0,0E0,0E0,0E0],"parents":[2147483647,0,0,1,1,2,2,3,3,4,4,5,5,7,7,8,8,9,9,10,10,12,12,13,13,14,14,16,16,17,17,19,19,20,20,21,21,22,22,23,23,24,24,26,26,27,27,28,28,29,29,31,31,34,34,38,38],"right_children":[2,4,6,8,10,12,-1,14,16,18,20,-1,22,24,26,-1,28,30,-1,32,34,36,38,40,42,-1,44,46,48,50,-1,52,-1,-1,54,-1,-1,-1,56,-1,-1,-1,-1,-1,-1,-1,-1,-1,-1,-1,-1,-1,-1,-1,-1,-1,-1],"split_conditions":[1.72E2,4.4E1,1.98E2,2.2E1,6.7E1,1.73E2,-7.121965E-4,1.5E1,2.5E1,6.3E1,7.2E1,-4.5656264E-4,1.75E2,9E0,2E1,8.8211073E-4,3.7E1,6.2E1,-6.1733724E-4,7E1,7.3E1,1.74E2,1.76E2,7E0,1.4E1,-6.6366146E-4,2.1E1,3.5E1,4.3E1,6E1,7.7507197E-4,6.8E1,1.2212932E-3,-8.952335E-4,1.68E2,1.7225742E-6,2.2821725E-4,-6.057039E-4,1.82E2,8.564932E-5,-6.411811E-4,3.4237554E-4,8.8828657E-4,5.442545E-4,-4.624501E-4,1.6490628E-4,-8.0947386E-4,4.928027E-4,1.18763746E-4,-4.4768523E-5,-5.7114864E-4,7.1133225E-4,-2.0792287E-4,-2.9986104E-6,3.1032145E-4,2.7797903E-5,-2.3784918E-4],"split_indices":[0,0,0,0,0,0,0,0,0,0,0,0,0,0,0,0,0,0,0,0,0,0,0,0,0,0,0,0,0,0,0,0,0,0,0,0,0,0,0,0,0,0,0,0,0,0,0,0,0,0,0,0,0,0,0,0,0],"split_type":[0,0,0,0,0,0,0,0,0,0,0,0,0,0,0,0,0,0,0,0,0,0,0,0,0,0,0,0,0,0,0,0,0,0,0,0,0,0,0,0,0,0,0,0,0,0,0,0,0,0,0,0,0,0,0,0,0],"sum_hessian":[1.98E2,1.71E2,2.7E1,4.3E1,1.28E2,2.6E1,1E0,2.1E1,2.2E1,2.3E1,1.05E2,1E0,2.5E1,1.4E1,7E0,3E0,1.9E1,1.9E1,4E0,5E0,1E2,2E0,2.3E1,8E0,6E0,5E0,2E0,1.2E1,7E0,1.8E1,1E0,3E0,2E0,1E0,9.9E1,1E0,1E0,1E0,2.2E1,6E0,2E0,5E0,1E0,1E0,1E0,1E1,2E0,6E0,1E0,1.6E1,2E0,1E0,2E0,9.5E1,4E0,6E0,1.6E1],"tree_param":{"num_deleted":"0","num_feature":"9","num_nodes":"57","size_leaf_vector":"1"}},{"base_weights":[-7.860445E-5,4.792641E-4,-1.5479196E-3,-2.8036535E-3,5.6836556E-4,-1.325997E-3,-6.765872E-4,-3.2617053E-4,-7.147491E-5,7.53136E-4,4.655687E-4,-3.8995643E-4,-1.1520219E-3,-6.611079E-4,5.6333817E-4,5.017221E-4,-1.3713643E-3,7.427797E-4,4.605162E-4,-2.5867342E-3,-1.0493391E-3,-5.984366E-4,5.9828362E-5,-1.0241568E-4,-4.6745615E-4,3.068246E-4,-1.4447494E-4],"categories":[],"categories_nodes":[],"categories_segments":[],"categories_sizes":[],"default_left":[0,0,0,0,0,0,0,0,0,0,0,0,0,0,0,0,0,0,0,0,0,0,0,0,0,0,0],"id":26,"left_children":[1,3,5,7,9,11,-1,-1,-1,-1,13,-1,15,-1,17,-1,19,-1,21,23,25,-1,-1,-1,-1,-1,-1],"loss_changes":[1.6385912E-4,4.400784E-5,5.4717486E-5,1.496006E-6,9.81335E-5,1.9685373E-5,0E0,0E0,0E0,0E0,1.0127938E-4,0E0,7.7245626E-5,0E0,9.5393785E-5,0E0,1.7246006E-5,0E0,1.2699768E-4,2.7836431E-5,7.281454E-5,0E0,0E0,0E0,0E0,0E0,0E0],"parents":[2147483647,0,0,1,1,2,2,3,3,4,4,5,5,10,10,12,12,14,14,16,16,18,18,19,19,20,20],"right_children":[2,4,6,8,10,12,-1,-1,-1,-1,14,-1,16,-1,18,-1,20,-1,22,24,26,-1,-1,-1,-1,-1,-1],"split_conditions":[1.45E2,4E0,1.98E2,3E0,5E0,1.47E2,-6.765872E-4,-3.2617053E-4,-7.147491E-5,7.53136E-4,6E0,-3.8995643E-4,1.48E2,-6.611079E-4,7E0,5.017221E-4,1.57E2,7.427797E-4,9E0,1.54E2,1.6E2,-5.984366E-4,5.9828362E-5,-1.0241568E-4,-4.6745615E-4,3.068246E-4,-1.4447494E-4],"split_indices":[0,0,0,0,0,0,0,0,0,0,0,0,0,0,0,0,0,0,0,0,0,0,0,0,0,0,0],"split_type":[0,0,0,0,0,0,0,0,0,0,0,0,0,0,0,0,0,0,0,0,0,0,0,0,0,0,0],"sum_hessian":[1.98E2,1.44E2,5.4E1,3E0,1.41E2,5.3E1,1E0,2E0,1E0,1E0,1.4E2,2E0,5.1E1,1E0,1.39E2,1E0,5E1,1E0,1.38E2,9E0,4.1E1,2E0,1.36E2,6E0,3E0,3E0,3.8E1],"tree_param":{"num_deleted":"0","num_feature":"9","num_nodes":"27","size_leaf_vector":"1"}},{"base_weights":[-7.614928E-5,2.5935366E-4,-2.1343764E-3,1.0804582E-3,-2.2723461E-5,-1.7373109E-3,-6.427571E-4,-5.183017E-4,2.56273E-3,-1.5805898E-3,3.3021535E-4,-4.2650997E-4,-1.4760459E-3,1.5975555E-3,-4.420746E-3,8.1146363E-4,1.3242125E-3,-4.648611E-4,-5.7273866E-3,6.931747E-3,-6.52243E-5,1.5526017E-3,-1.7931251E-3,-1.265082E-3,5.049867E-3,-6.1334274E-4,4.7819814E-4,-3.4589545E-4,2.3717687E-3,-1.26125E-3,7.3332636E-4,-7.9222023E-4,-3.198132E-3,1.8784925E-3,1.1358837E-3,-4.950727E-3,2.4079904E-4,8.860231E-6,2.2403002E-4,-5.681947E-4,-1.3770047E-3,7.672139E-5,-5.585412E-4,3.0885785E-4,8.4088E-4,5.1404984E-4,-4.423201E-4,5.656913E-4,1.263744E-4,2.6183823E-5,-3.388226E-4,4.8048794E-5,-4.5845011E-4,6.7277404E-4,-1.9805033E-4,-8.53464E-4,-2.5270166E-4,2.9667068E-4,-1.8393426E-5,3.7798713E-5,-2.018648E-4],"categories":[],"categories_nodes":[],"categories_segments":[],"categories_sizes":[],"default_left":[0,0,0,0,0,0,0,0,0,0,0,0,0,0,0,0,0,0,0,0,0,0,0,0,0,0,0,0,0,0,0,0,0,0,0,0,0,0,0,0,0,0,0,0,0,0,0,0,0,0,0,0,0,0,0,0,0,0,0,0,0],"id":27,"left_children":[1,3,5,7,9,11,-1,13,15,17,19,-1,21,23,25,-1,27,29,31,33,35,37,39,41,43,-1,45,-1,47,49,-1,-1,51,53,-1,55,57,-1,-1,-1,59,-1,-1,-1,-1,-1,-1,-1,-1,-1,-1,-1,-1,-1,-1,-1,-1,-1,-1,-1,-1],"loss_changes":[1.3797128E-4,3.9862298E-5,3.6564335E-5,1.0559935E-4,7.1450195E-5,1.1535929E-5,0E0,1.8871672E-4,1.4740556E-4,1.0837837E-4,2.7716593E-4,0E0,2.7752347E-5,1.5462925E-4,7.005563E-5,0E0,1.0841656E-4,1.3345588E-4,2.4199835E-6,1.1288977E-4,1.52195E-4,2.8218751E-6,3.1013158E-5,8.330692E-5,2.0143634E-5,0E0,9.129284E-5,0E0,5.473145E-5,6.2439045E-5,0E0,0E0,2.2602504E-5,8.817722E-5,0E0,3.0551033E-5,1.1169291E-4,0E0,0E0,0E0,2.6662834E-5,0E0,0E0,0E0,0E0,0E0,0E0,0E0,0E0,0E0,0E0,0E0,0E0,0E0,0E0,0E0,0E0,0E0,0E0,0E0,0E0],"parents":[2147483647,0,0,1,1,2,2,3,3,4,4,5,5,7,7,8,8,9,9,10,10,12,12,13,13,14,14,16,16,17,17,18,18,19,19,20,20,21,21,22,22,23,23,24,24,26,26,28,28,29,29,32,32,33,33,35,35,36,36,40,40],"right_children":[2,4,6,8,10,12,-1,14,16,18,20,-1,22,24,26,-1,28,30,32,34,36,38,40,42,44,-1,46,-1,48,50,-1,-1,52,54,-1,56,58,-1,-1,-1,60,-1,-1,-1,-1,-1,-1,-1,-1,-1,-1,-1,-1,-1,-1,-1,-1,-1,-1,-1,-1],"split_conditions":[1.72E2,4.4E1,1.98E2,2.2E1,6.7E1,1.73E2,-6.427571E-4,1.5E1,2.5E1,6.3E1,7.2E1,-4.2650997E-4,1.75E2,9E0,2E1,8.1146363E-4,2.8E1,6.2E1,6.4E1,7E1,7.7E1,1.74E2,1.76E2,7E0,1.4E1,-6.1334274E-4,2.1E1,-3.4589545E-4,3.1E1,5.5E1,7.3332636E-4,-7.9222023E-4,6.5E1,6.8E1,1.1358837E-3,7.3E1,8.9E1,8.860231E-6,2.2403002E-4,-5.681947E-4,1.82E2,7.672139E-5,-5.585412E-4,3.0885785E-4,8.4088E-4,5.1404984E-4,-4.423201E-4,5.656913E-4,1.263744E-4,2.6183823E-5,-3.388226E-4,4.8048794E-5,-4.5845011E-4,6.7277404E-4,-1.9805033E-4,-8.53464E-4,-2.5270166E-4,2.9667068E-4,-1.8393426E-5,3.7798713E-5,-2.018648E-4],"split_indices":[0,0,0,0,0,0,0,0,0,0,0,0,0,0,0,0,0,0,0,0,0,0,0,0,0,0,0,0,0,0,0,0,0,0,0,0,0,0,0,0,0,0,0,0,0,0,0,0,0,0,0,0,0,0,0,0,0,0,0,0,0],"split_type":[0,0,0,0,0,0,0,0,0,0,0,0,0,0,0,0,0,0,0,0,0,0,0,0,0,0,0,0,0,0,0,0,0,0,0,0,0,0,0,0,0,0,0,0,0,0,0,0,0,0,0,0,0,0,0,0,0,0,0,0,0],"sum_hessian":[1.98E2,1.71E2,2.7E1,4.3E1,1.28E2,2.6E1,1E0,2.1E1,2.2E1,2.3E1,1.05E2,1E0,2.5E1,1.4E1,7E0,3E0,1.9E1,1.9E1,4E0,5E0,1E2,2E0,2.3E1,8E0,6E0,5E0,2E0,3E0,1.6E1,1.8E1,1E0,1E0,3E0,3E0,2E0,5E0,9.5E1,1E0,1E0,1E0,2.2E1,6E0,2E0,5E0,1E0,1E0,1E0,3E0,1.3E1,1.1E1,7E0,1E0,2E0,1E0,2E0,1E0,4E0,1.2E1,8.3E1,6E0,1.6E1],"tree_param":{"num_deleted":"0","num_feature":"9","num_nodes":"61","size_leaf_vector":"1"}},{"base_weights":[-6.996507E-5,3.8808322E-4,-1.3722955E-3,3.2574972E-4,4.775554E-4,-1.1597446E-3,-6.106198E-4,4.0529104E-4,-3.62733E-4,-2.9809892E-3,-9.413197E-4,-2.680242E-3,4.893533E-4,-4.0584803E-4,-6.640777E-4,2.8201938E-3,-1.171169E-3,-3.6422463E-4,-1.145492E-4,7.116437E-4,3.918815E-4,-2.1423001E-3,2.4017543E-4,7.093102E-5,3.5209805E-4,-4.3101833E-4,-8.443303E-4,-6.318882E-4,4.849504E-5,-4.668385E-5,-2.746612E-4,2.851926E-4,-1.201784E-4],"categories":[],"categories_nodes":[],"categories_segments":[],"categories_sizes":[],"default_left":[0,0,0,0,0,0,0,0,0,0,0,0,0,0,0,0,0,0,0,0,0,0,0,0,0,0,0,0,0,0,0,0,0],"id":28,"left_children":[1,3,5,7,-1,9,-1,11,-1,13,15,17,19,21,-1,23,25,-1,-1,-1,27,29,-1,-1,-1,-1,31,-1,-1,-1,-1,-1,-1],"loss_changes":[1.19242075E-4,3.8920356E-5,4.5240544E-5,4.7691792E-5,0E0,1.7482002E-5,0E0,3.8921236E-5,0E0,4.44272E-5,4.393825E-5,1.7335806E-6,8.893662E-5,2.4646346E-5,0E0,1.9403687E-6,4.252859E-5,0E0,0E0,0E0,9.112779E-5,1.7552802E-6,0E0,0E0,0E0,0E0,5.8919497E-5,0E0,0E0,0E0,0E0,0E0,0E0],"parents":[2147483647,0,0,1,1,2,2,3,3,5,5,7,7,9,9,10,10,11,11,12,12,13,13,15,15,16,16,20,20,21,21,26,26],"right_children":[2,4,6,8,-1,10,-1,12,-1,14,16,18,20,22,-1,24,26,-1,-1,-1,28,30,-1,-1,-1,-1,32,-1,-1,-1,-1,-1,-1],"split_conditions":[1.48E2,1.47E2,1.98E2,1.45E2,4.775554E-4,1.52E2,-6.106198E-4,4E0,-3.62733E-4,1.51E2,1.54E2,2E0,5E0,1.5E2,-6.640777E-4,1.53E2,1.57E2,-3.6422463E-4,-1.145492E-4,7.116437E-4,6E0,1.49E2,2.4017543E-4,7.093102E-5,3.5209805E-4,-4.3101833E-4,1.6E2,-6.318882E-4,4.849504E-5,-4.668385E-5,-2.746612E-4,2.851926E-4,-1.201784E-4],"split_indices":[0,0,0,0,0,0,0,0,0,0,0,0,0,0,0,0,0,0,0,0,0,0,0,0,0,0,0,0,0,0,0,0,0],"split_type":[0,0,0,0,0,0,0,0,0,0,0,0,0,0,0,0,0,0,0,0,0,0,0,0,0,0,0,0,0,0,0,0,0],"sum_hessian":[1.98E2,1.47E2,5.1E1,1.46E2,1E0,5E1,1E0,1.44E2,2E0,4E0,4.6E1,3E0,1.41E2,3E0,1E0,2E0,4.4E1,1E0,2E0,1E0,1.4E2,2E0,1E0,1E0,1E0,3E0,4.1E1,1E0,1.39E2,1E0,1E0,3E0,3.8E1],"tree_param":{"num_deleted":"0","num_feature":"9","num_nodes":"33","size_leaf_vector":"1"}},{"base_weights":[-7.0169495E-5,2.1892873E-4,-1.8435525E-3,1.3243301E-4,3.0813992E-3,-1.4821368E-3,-5.800888E-4,4.774828E-4,-8.508319E-4,4.99323E-4,1.355134E-3,-2.1807787E-3,-6.7762815E-4,3.478766E-4,3.5184561E-3,-6.150291E-4,-3.0551031E-3,-1.2627542E-4,4.6043991E-4,-9.86671E-4,-4.9193803E-4,1.3969442E-3,-1.9853844E-3,-2.5319085E-3,4.4254833E-4,6.9313793E-4,9.323806E-5,-8.433576E-4,2.5582511E-3,-4.0226182E-4,-7.6279043E-6,-2.3112185E-3,1.9090921E-3,2.611995E-4,1.3642013E-4,-5.247757E-4,-9.216182E-4,-3.460139E-4,-1.06911866E-4,6.760612E-4,3.3076478E-5,-5.484737E-5,-3.2864735E-4,6.818622E-5,3.1555147E-4,-8.2954764E-5,-3.0343115E-4,3.2909514E-4,3.514886E-5,-3.1817853E-4,2.3030837E-4,3.3957066E-4,-2.0234798E-4],"categories":[],"categories_nodes":[],"categories_segments":[],"categories_sizes":[],"default_left":[0,0,0,0,0,0,0,0,0,0,0,0,0,0,0,0,0,0,0,0,0,0,0,0,0,0,0,0,0,0,0,0,0,0,0,0,0,0,0,0,0,0,0,0,0,0,0,0,0,0,0,0,0],"id":29,"left_children":[1,3,5,7,9,11,-1,13,15,-1,17,19,21,23,25,27,29,-1,-1,31,-1,33,35,37,39,-1,-1,41,43,-1,-1,45,47,-1,49,-1,51,-1,-1,-1,-1,-1,-1,-1,-1,-1,-1,-1,-1,-1,-1,-1,-1],"loss_changes":[1.0242729E-4,4.2177653E-5,3.1449097E-5,5.7404515E-5,9.73514E-6,1.3697954E-5,0E0,4.8042137E-5,2.099105E-5,0E0,3.9839077E-5,4.0928782E-5,4.0755956E-5,3.410923E-5,3.7667705E-5,3.186409E-5,1.1221389E-5,0E0,0E0,4.6603665E-5,0E0,8.833275E-6,2.6397189E-5,1.7319271E-6,8.1102E-5,0E0,0E0,2.6294445E-5,1.2104701E-6,0E0,0E0,6.0539787E-6,7.4528225E-6,0E0,3.6085657E-5,0E0,4.4927892E-5,0E0,0E0,0E0,0E0,0E0,0E0,0E0,0E0,0E0,0E0,0E0,0E0,0E0,0E0,0E0,0E0],"parents":[2147483647,0,0,1,1,2,2,3,3,4,4,5,5,7,7,8,8,10,10,11,11,12,12,13,13,14,14,15,15,16,16,19,19,21,21,22,22,23,23,24,24,27,27,28,28,31,31,32,32,34,34,36,36],"right_children":[2,4,6,8,10,12,-1,14,16,-1,18,20,22,24,26,28,30,-1,-1,32,-1,34,36,38,40,-1,-1,42,44,-1,-1,46,48,-1,50,-1,52,-1,-1,-1,-1,-1,-1,-1,-1,-1,-1,-1,-1,-1,-1,-1,-1],"split_conditions":[1.72E2,1.68E2,1.98E2,1.25E2,1.69E2,1.85E2,-5.800888E-4,1.21E2,1.65E2,4.99323E-4,1.71E2,1.82E2,1.9E2,4E0,1.22E2,1.63E2,1.67E2,-1.2627542E-4,4.6043991E-4,1.79E2,-4.9193803E-4,1.87E2,1.91E2,2E0,5E0,6.9313793E-4,9.323806E-5,1.6E2,1.64E2,-4.0226182E-4,-7.6279043E-6,1.75E2,1.8E2,2.611995E-4,1.88E2,-5.247757E-4,1.92E2,-3.460139E-4,-1.06911866E-4,6.760612E-4,3.3076478E-5,-5.484737E-5,-3.2864735E-4,6.818622E-5,3.1555147E-4,-8.2954764E-5,-3.0343115E-4,3.2909514E-4,3.514886E-5,-3.1817853E-4,2.3030837E-4,3.3957066E-4,-2.0234798E-4],"split_indices":[0,0,0,0,0,0,0,0,0,0,0,0,0,0,0,0,0,0,0,0,0,0,0,0,0,0,0,0,0,0,0,0,0,0,0,0,0,0,0,0,0,0,0,0,0,0,0,0,0,0,0,0,0],"split_type":[0,0,0,0,0,0,0,0,0,0,0,0,0,0,0,0,0,0,0,0,0,0,0,0,0,0,0,0,0,0,0,0,0,0,0,0,0,0,0,0,0,0,0,0,0,0,0,0,0,0,0,0,0],"sum_hessian":[1.98E2,1.71E2,2.7E1,1.67E2,4E0,2.6E1,1E0,1.24E2,4.3E1,1E0,3E0,1.3E1,1.3E1,1.2E2,4E0,4E1,3E0,2E0,1E0,1E1,3E0,5E0,8E0,3E0,1.17E2,1E0,3E0,3.8E1,2E0,2E0,1E0,7E0,3E0,2E0,3E0,1E0,7E0,1E0,2E0,1E0,1.16E2,3.5E1,3E0,1E0,1E0,3E0,4E0,1E0,2E0,1E0,2E0,1E0,6E0],"tree_param":{"num_deleted":"0","num_feature":"9","num_nodes":"53","size_leaf_vector":"1"}},{"base_weights":[-6.236263E-5,2.0555632E-4,-1.7059232E-3,1.2295197E-4,2.9399514E-3,-1.3608955E-3,-5.510837E-4,3.073835E-4,-1.4310546E-3,4.7435611E-4,1.3031587E-3,-3.9502681E-4,-1.1093708E-3,-2.3919567E-3,3.7826176E-4,-6.281316E-4,-7.7625585E-4,-1.1785725E-3,4.3741762E-4,1.6103983E-3,-1.4031181E-3,-3.2871365E-4,-9.9785124E-5,6.422579E-4,2.9345293E-4,2.7157466E-3,-1.422906E-3,-1.6227514E-4,-1.4510751E-5,1.8574297E-5,2.2298544E-4,-5.186051E-4,-1.0131623E-3,-6.019473E-4,3.7792142E-5,7.0126356E-5,3.3723563E-4,-3.945783E-4,-4.633715E-5,5.2160027E-5,-1.5855256E-4],"categories":[],"categories_nodes":[],"categories_segments":[],"categories_sizes":[],"default_left":[0,0,0,0,0,0,0,0,0,0,0,0,0,0,0,0,0,0,0,0,0,0,0,0,0,0,0,0,0,0,0,0,0,0,0,0,0,0,0,0,0],"id":30,"left_children":[1,3,5,7,9,11,-1,13,15,-1,17,-1,19,21,23,-1,25,27,-1,29,31,-1,-1,-1,33,35,37,-1,-1,-1,-1,-1,39,-1,-1,-1,-1,-1,-1,-1,-1],"loss_changes":[8.797854E-5,3.8488673E-5,2.925875E-5,4.859E-5,8.579063E-6,1.3202538E-5,0E0,2.9794777E-5,5.2291103E-5,0E0,3.5641046E-5,0E0,2.303163E-5,1.7118273E-6,7.398177E-5,0E0,4.2252017E-5,1.141656E-6,0E0,2.2333543E-6,3.0149928E-5,0E0,0E0,0E0,8.066166E-5,1.6032773E-6,3.448344E-5,0E0,0E0,0E0,0E0,0E0,2.103117E-5,0E0,0E0,0E0,0E0,0E0,0E0,0E0,0E0],"parents":[2147483647,0,0,1,1,2,2,3,3,4,4,5,5,7,7,8,8,10,10,12,12,13,13,14,14,16,16,17,17,19,19,20,20,24,24,25,25,26,26,32,32],"right_children":[2,4,6,8,10,12,-1,14,16,-1,18,-1,20,22,24,-1,26,28,-1,30,32,-1,-1,-1,34,36,38,-1,-1,-1,-1,-1,40,-1,-1,-1,-1,-1,-1,-1,-1],"split_conditions":[1.72E2,1.68E2,1.98E2,1.51E2,1.69E2,1.73E2,-5.510837E-4,4E0,1.52E2,4.7435611E-4,1.71E2,-3.9502681E-4,1.75E2,2E0,5E0,-6.281316E-4,1.54E2,1.7E2,4.3741762E-4,1.74E2,1.76E2,-3.2871365E-4,-9.9785124E-5,6.422579E-4,6E0,1.53E2,1.57E2,-1.6227514E-4,-1.4510751E-5,1.8574297E-5,2.2298544E-4,-5.186051E-4,1.82E2,-6.019473E-4,3.7792142E-5,7.0126356E-5,3.3723563E-4,-3.945783E-4,-4.633715E-5,5.2160027E-5,-1.5855256E-4],"split_indices":[0,0,0,0,0,0,0,0,0,0,0,0,0,0,0,0,0,0,0,0,0,0,0,0,0,0,0,0,0,0,0,0,0,0,0,0,0,0,0,0,0],"split_type":[0,0,0,0,0,0,0,0,0,0,0,0,0,0,0,0,0,0,0,0,0,0,0,0,0,0,0,0,0,0,0,0,0,0,0,0,0,0,0,0,0],"sum_hessian":[1.98E2,1.71E2,2.7E1,1.67E2,4E0,2.6E1,1E0,1.5E2,1.7E1,1E0,3E0,1E0,2.5E1,3E0,1.47E2,1E0,1.6E1,2E0,1E0,2E0,2.3E1,1E0,2E0,1E0,1.46E2,2E0,1.4E1,1E0,1E0,1E0,1E0,1E0,2.2E1,1E0,1.45E2,1E0,1E0,3E0,1.1E1,6E0,1.6E1],"tree_param":{"num_deleted":"0","num_feature":"9","num_nodes":"41","size_leaf_vector":"1"}},{"base_weights":[-6.41978E-5,1.833924E-4,-1.5828162E-3,1.0463524E-4,2.7929544E-3,-1.2536391E-3,-5.2352995E-4,4.0599896E-4,-7.5388973E-4,4.5063795E-4,1.2380034E-3,-1.9397949E-3,-4.7793772E-4,2.8331936E-4,3.2936453E-3,-2.04114E-3,-3.6456416E-4,-1.1196434E-3,4.155472E-4,-8.573722E-4,-4.4315084E-4,1.4182627E-3,-1.6889671E-3,9.178824E-4,-7.8271594E-5,6.565914E-4,8.341E-5,-5.244076E-4,-2.964894E-3,4.479736E-4,-6.388005E-4,-1.5416146E-4,-1.3785065E-5,-2.0639524E-3,1.7701313E-3,2.5435686E-4,2.1971762E-4,-4.906088E-4,-6.73566E-4,2.3594419E-5,3.9571113E-4,-1.5695007E-4,5.7386973E-5,-3.1849145E-4,2.3109019E-4,-4.8613103E-4,-1.6133487E-4,-4.2978526E-4,-3.976822E-5,-3.7527533E-4,-1.2865876E-4,2.8605262E-5,3.1111838E-4,-2.9434264E-4,2.2552411E-4,3.305197E-4,-1.7141316E-4],"categories":[],"categories_nodes":[],"categories_segments":[],"categories_sizes":[],"default_left":[0,0,0,0,0,0,0,0,0,0,0,0,0,0,0,0,0,0,0,0,0,0,0,0,0,0,0,0,0,0,0,0,0,0,0,0,0,0,0,0,0,0,0,0,0,0,0,0,0,0,0,0,0,0,0,0,0],"id":31,"left_children":[1,3,5,7,9,11,-1,13,15,-1,17,19,21,23,25,27,29,31,-1,33,-1,35,37,39,41,-1,-1,43,45,-1,47,-1,-1,49,51,-1,53,-1,55,-1,-1,-1,-1,-1,-1,-1,-1,-1,-1,-1,-1,-1,-1,-1,-1,-1,-1],"loss_changes":[7.511329E-5,3.505749E-5,2.710161E-5,4.3772423E-5,7.742547E-6,1.34437E-5,0E0,4.334876E-5,2.1306892E-5,0E0,3.216609E-5,3.395978E-5,3.4544362E-5,2.7835567E-5,3.4764835E-5,1.2456061E-5,4.9358572E-5,1.030352E-6,0E0,3.8526698E-5,0E0,7.533511E-6,2.609544E-5,9.0259266E-5,7.675508E-5,0E0,0E0,4.5076828E-5,7.535564E-6,0E0,2.828781E-5,0E0,0E0,5.6742683E-6,7.0709466E-6,0E0,3.2392752E-5,0E0,3.8786853E-5,0E0,0E0,0E0,0E0,0E0,0E0,0E0,0E0,0E0,0E0,0E0,0E0,0E0,0E0,0E0,0E0,0E0,0E0],"parents":[2147483647,0,0,1,1,2,2,3,3,4,4,5,5,7,7,8,8,10,10,11,11,12,12,13,13,14,14,15,15,16,16,17,17,19,19,21,21,22,22,23,23,24,24,27,27,28,28,30,30,33,33,34,34,36,36,38,38],"right_children":[2,4,6,8,10,12,-1,14,16,-1,18,20,22,24,26,28,30,32,-1,34,-1,36,38,40,42,-1,-1,44,46,-1,48,-1,-1,50,52,-1,54,-1,56,-1,-1,-1,-1,-1,-1,-1,-1,-1,-1,-1,-1,-1,-1,-1,-1,-1,-1],"split_conditions":[1.72E2,1.68E2,1.98E2,1.25E2,1.69E2,1.85E2,-5.2352995E-4,1.21E2,1.34E2,4.5063795E-4,1.71E2,1.82E2,1.9E2,4.4E1,1.22E2,1.29E2,1.35E2,1.7E2,4.155472E-4,1.79E2,-4.4315084E-4,1.87E2,1.91E2,3.7E1,6.7E1,6.565914E-4,8.341E-5,1.27E2,1.3E2,4.479736E-4,1.36E2,-1.5416146E-4,-1.3785065E-5,1.73E2,1.81E2,2.5435686E-4,1.88E2,-4.906088E-4,1.92E2,2.3594419E-5,3.9571113E-4,-1.5695007E-4,5.7386973E-5,-3.1849145E-4,2.3109019E-4,-4.8613103E-4,-1.6133487E-4,-4.2978526E-4,-3.976822E-5,-3.7527533E-4,-1.2865876E-4,2.8605262E-5,3.1111838E-4,-2.9434264E-4,2.2552411E-4,3.305197E-4,-1.7141316E-4],"split_indices":[0,0,0,0,0,0,0,0,0,0,0,0,0,0,0,0,0,0,0,0,0,0,0,0,0,0,0,0,0,0,0,0,0,0,0,0,0,0,0,0,0,0,0,0,0,0,0,0,0,0,0,0,0,0,0,0,0],"split_type":[0,0,0,0,0,0,0,0,0,0,0,0,0,0,0,0,0,0,0,0,0,0,0,0,0,0,0,0,0,0,0,0,0,0,0,0,0,0,0,0,0,0,0,0,0,0,0,0,0,0,0,0,0,0,0,0,0],"sum_hessian":[1.98E2,1.71E2,2.7E1,1.67E2,4E0,2.6E1,1E0,1.24E2,4.3E1,1E0,3E0,1.3E1,1.3E1,1.2E2,4E0,9E0,3.4E1,2E0,1E0,1E1,3E0,5E0,8E0,4.3E1,7.7E1,1E0,3E0,4E0,5E0,1E0,3.3E1,1E0,1E0,7E0,3E0,2E0,3E0,1E0,7E0,3.6E1,7E0,2.3E1,5.4E1,2E0,2E0,1E0,4E0,1E0,3.2E1,1E0,6E0,2E0,1E0,1E0,2E0,1E0,6E0],"tree_param":{"num_deleted":"0","num_feature":"9","num_nodes":"57","size_leaf_vector":"1"}},{"base_weights":[-5.9169142E-5,1.7086677E-4,-1.4701337E-3,9.596738E-5,2.6533126E-3,-1.1561734E-3,-4.973531E-4,2.6020763E-4,-1.2871573E-3,4.281059E-4,1.1761114E-3,-3.5651177E-4,-9.2640176E-4,-2.2775903E-3,3.270386E-4,-5.9473666E-4,-6.631823E-4,-1.0636548E-4,3.947705E-4,1.6156534E-3,-1.2055585E-3,-3.1345786E-4,-9.470682E-5,6.089643E-4,2.4641107E-4,2.6064615E-3,-1.2728989E-3,2.4078787E-5,2.1826923E-4,-4.862428E-4,-8.351544E-4,-5.7303015E-4,3.265961E-5,6.860793E-5,3.223613E-4,-3.6200284E-4,-3.844475E-5,4.7941718E-5,-1.327322E-4],"categories":[],"categories_nodes":[],"categories_segments":[],"categories_sizes":[],"default_left":[0,0,0,0,0,0,0,0,0,0,0,0,0,0,0,0,0,0,0,0,0,0,0,0,0,0,0,0,0,0,0,0,0,0,0,0,0,0,0],"id":32,"left_children":[1,3,5,7,9,11,-1,13,15,-1,17,-1,19,21,23,-1,25,-1,-1,27,29,-1,-1,-1,31,33,35,-1,-1,-1,37,-1,-1,-1,-1,-1,-1,-1,-1],"loss_changes":[6.484112E-5,3.172596E-5,2.5047706E-5,3.8498605E-5,6.9875423E-6,1.1641958E-5,0E0,2.6354992E-5,4.839718E-5,0E0,2.9029885E-5,0E0,2.0398198E-5,1.5923088E-6,6.726387E-5,0E0,3.7208218E-5,0E0,0E0,1.8132405E-6,2.8447594E-5,0E0,0E0,0E0,7.232018E-5,1.3438439E-6,2.9887948E-5,0E0,0E0,0E0,1.5517096E-5,0E0,0E0,0E0,0E0,0E0,0E0,0E0,0E0],"parents":[2147483647,0,0,1,1,2,2,3,3,4,4,5,5,7,7,8,8,10,10,12,12,13,13,14,14,16,16,19,19,20,20,24,24,25,25,26,26,30,30],"right_children":[2,4,6,8,10,12,-1,14,16,-1,18,-1,20,22,24,-1,26,-1,-1,28,30,-1,-1,-1,32,34,36,-1,-1,-1,38,-1,-1,-1,-1,-1,-1,-1,-1],"split_conditions":[1.72E2,1.68E2,1.98E2,1.51E2,1.69E2,1.73E2,-4.973531E-4,4E0,1.52E2,4.281059E-4,1.71E2,-3.5651177E-4,1.75E2,2E0,5E0,-5.9473666E-4,1.54E2,-1.0636548E-4,3.947705E-4,1.74E2,1.76E2,-3.1345786E-4,-9.470682E-5,6.089643E-4,6E0,1.53E2,1.57E2,2.4078787E-5,2.1826923E-4,-4.862428E-4,1.82E2,-5.7303015E-4,3.265961E-5,6.860793E-5,3.223613E-4,-3.6200284E-4,-3.844475E-5,4.7941718E-5,-1.327322E-4],"split_indices":[0,0,0,0,0,0,0,0,0,0,0,0,0,0,0,0,0,0,0,0,0,0,0,0,0,0,0,0,0,0,0,0,0,0,0,0,0,0,0],"split_type":[0,0,0,0,0,0,0,0,0,0,0,0,0,0,0,0,0,0,0,0,0,0,0,0,0,0,0,0,0,0,0,0,0,0,0,0,0,0,0],"sum_hessian":[1.98E2,1.71E2,2.7E1,1.67E2,4E0,2.6E1,1E0,1.5E2,1.7E1,1E0,3E0,1E0,2.5E1,3E0,1.47E2,1E0,1.6E1,2E0,1E0,2E0,2.3E1,1E0,2E0,1E0,1.46E2,2E0,1.4E1,1E0,1E0,1E0,2.2E1,1E0,1.45E2,1E0,1E0,3E0,1.1E1,6E0,1.6E1],"tree_param":{"num_deleted":"0","num_feature":"9","num_nodes":"39","size_leaf_vector":"1"}},{"base_weights":[-6.033892E-5,1.5245586E-4,-1.3653518E-3,